209 300
浮力 -0.28282282 0.06668392 -0.2875365 -0.17364112 -0.28440598 -0.2298561 -0.2211325 -0.66828454 0.13788581 -0.6301861 -0.13079739 0.4523964 0.48943833 0.06685079 -0.042312067 0.23082158 0.053512037 -0.72050273 0.22942327 0.6245338 -0.2976883 -0.31302536 -0.3711066 0.28104076 0.088031955 -0.0965017 0.05537654 0.5062108 -0.3684194 0.20749463 -0.30619416 0.0551926 -0.7401665 -0.042674977 0.15250772 -0.05682275 0.18566519 0.36136964 -0.2101536 -0.045301706 -0.36842528 -0.5513476 0.10669119 -0.13354771 -0.030146183 0.033785276 -0.7222213 -0.40768486 -0.31271806 -0.22526409 0.17543365 -0.08291724 -0.26768205 0.1811472 0.27333108 -0.13295779 0.18627894 -0.14156891 -0.21104094 0.21701515 0.3970737 -0.8336078 1.1932714 -0.0006121348 -0.23920444 -0.282423 0.3732197 0.001146832 0.16214126 0.41633263 0.06536283 -0.38592345 0.1541971 0.42261487 0.052885495 -0.1459799 -0.07501473 -0.31064054 0.009504311 0.09575243 -0.017482135 -0.58266926 0.25338733 0.13138103 0.08875222 0.39999232 0.1163549 -0.2316896 -0.116324835 -0.5221619 -0.25397667 -0.20015904 -0.4929027 -0.4439861 -0.3484391 0.36259207 -0.6361435 0.22823401 0.30516037 -0.5079399 0.26241052 0.09994728 0.45505726 -0.20115146 0.45185193 -0.052183677 -0.083878316 -0.06548368 0.5153158 0.7823119 0.18735966 0.25684354 0.06850798 -0.15340836 -0.15315928 -0.52052504 0.040724847 0.19362585 -0.026180977 -0.3361652 -0.18118702 0.42469904 -0.17489567 0.32700664 0.7119217 0.32324994 -0.2744166 -0.21477859 -0.028553184 0.1576473 0.27951497 0.3851772 -0.37082177 0.52123964 0.11364848 0.31701806 -0.053179983 -0.239202 0.3073403 0.04560592 0.0626014 -0.10233556 0.31702086 0.13512741 0.1982133 -0.63544947 0.14147279 0.1693897 -0.25447986 -0.00027617367 0.23330805 -0.014155747 -0.18892418 -0.49180925 0.21180373 0.045095816 -0.070643686 0.03134581 -0.3211495 -0.39938772 0.39396492 -0.07229468 0.37801313 -0.32015494 0.09601273 0.5471341 0.58119535 -0.15229802 -0.3701365 0.395877 0.38019937 -0.036500383 -0.4244211 0.049649365 0.22114049 0.0056234086 -0.54619926 -0.28844222 0.2931182 0.036414683 -0.043438386 -0.19110045 0.37022248 -1.2146184 -0.08575031 0.6721949 -0.13693038 0.61288184 0.4158748 0.22937997 0.34312496 0.26103416 -0.21872962 -0.11362898 -0.32347605 0.09793368 -0.0654406 -0.4177785 -0.7245378 -0.16861546 0.00961548 0.6345214 0.26407441 -0.10222904 -0.31264648 -0.07412536 -0.20937124 0.3700779 0.014113605 -0.145053 0.5302313 -0.74979734 -0.3388598 -0.13938926 0.13256194 0.20516557 -0.5984378 -0.33420935 -0.04085211 -0.20598882 -0.09568659 0.16904289 -0.0792663 0.2662142 0.20840392 -0.2540706 0.17759837 0.21816744 -0.30068338 -0.15785515 0.32148632 0.37794444 -0.1976956 -0.0074225403 0.20595208 0.39586094 -0.17606643 -0.7358648 -0.17351808 0.24211198 0.059508156 -0.10849842 -0.5226006 0.5169181 0.34055218 0.19495785 0.04118035 -0.72941834 -0.8197359 -0.34442526 -0.2479747 0.053817563 -0.581664 0.21994188 -0.01840661 -0.3819158 0.06052971 -0.47568467 0.46905696 -0.10430708 0.34291834 0.265361 -0.007671827 0.14681272 0.8685494 -0.37118077 0.18522109 0.25703704 -0.18369243 -0.15158801 0.06607237 0.08342872 0.31252795 0.007053953 0.25014055 -0.37954083 -0.2474347 -0.09909166 -0.4045132 0.00952149 0.33004534 -0.4216069 -0.008573725 -0.28573692 0.01624142 -0.12748703 0.03363801 -0.11275055 0.4493929 0.11432343 -0.348983 0.6187357 0.024930999 0.2909845 -0.09794177 0.063356884 -0.39649403 0.00715638 0.25478572 -0.14784864
不变 0.17081715 -0.11391072 0.44068557 -0.3160484 -0.111582346 0.21685706 0.3702034 -0.21810064 0.3701915 0.005883882 -0.43439424 -0.0025482848 -0.2821427 0.46318597 -0.27744308 0.07047709 -0.5025441 0.16498415 -0.05506111 0.0141943265 0.54993 -0.3368476 -0.24838305 -0.32655832 0.19081728 0.46351376 0.16542798 0.3820954 -0.25014985 -0.06456621 -0.35549745 -0.3041601 0.16936633 0.119962625 0.37776425 -0.4962857 -0.5520883 0.12266836 -0.51015604 -0.25515598 -0.21873528 0.24026205 0.20390123 0.09377493 0.15992238 0.10251569 -0.54921883 0.028450936 0.07239505 0.10622304 0.104163356 0.25613707 0.4413469 -0.3356466 -0.10901972 0.33544827 -0.36086968 0.28617355 -0.25979736 -0.109907046 0.46380717 -0.32888168 0.7632524 0.24622314 -0.20091382 0.17963982 0.14288592 0.15893072 0.0093835285 0.5202411 -0.40316156 -0.06744875 -0.20412423 0.25487328 0.20855689 -0.205739 0.080463044 -0.1945143 0.08398918 -0.56812006 -0.0025262712 -0.8424093 -0.10106244 0.15049037 0.30518118 -0.3173595 0.20242788 0.1602637 -0.31062928 -0.804017 0.329451 0.5810528 -0.16025275 -0.0032983616 -0.0181801 -0.1470887 -0.3666404 0.18506202 0.2669925 -0.05081763 -0.25713938 -0.055796087 0.22915232 0.09592428 0.36275214 -0.7352711 0.2450988 -0.42964193 0.25963268 0.39508462 -0.2397724 -0.11273672 -0.152484 0.18841141 0.092268504 -0.22018752 0.31773734 0.1591629 0.40267825 -0.20000266 -0.5286402 -0.17464654 -0.025577515 0.07540972 -0.08393477 0.3228279 0.15696909 0.4496341 -0.25118095 0.28298575 -0.31578183 -0.13367109 -0.3027969 0.18866543 -0.4402402 -0.09993546 0.20163116 -0.3532133 0.08740545 0.2990753 0.10495228 0.53084993 0.29666674 0.103805974 -0.21478917 0.29183787 -0.07129812 -0.018390171 -0.30472586 -0.09748983 -0.0008463621 -0.23348363 0.5328369 0.33417484 -0.5053404 0.3622853 0.23010533 0.31692052 -0.042163998 -0.21710289 -0.017303078 0.58396596 -0.2992027 0.012327575 -0.009877469 0.011781053 0.42977595 -0.11739802 0.1298485 0.3051088 0.35287607 -0.4713607 0.038859203 0.0013716342 0.6802813 -0.1760502 0.5362573 -0.15017886 -0.19629699 0.29922155 -0.5256234 -0.75105786 -0.13583863 -0.48731202 0.2958253 -0.2100368 0.41227776 0.2888516 -0.121689774 0.51100016 0.36240688 0.74329615 -0.6643676 -0.027038412 -0.056989636 -0.39117256 0.17472985 -0.113591045 -0.30851176 -0.74757177 -0.15394382 -0.032022007 0.07168464 -0.543189 -0.48004672 0.11643923 -0.019423055 0.030831203 -0.2683646 -0.35559842 0.16696255 -0.23515807 0.31713715 -0.049026903 -0.07235208 0.18585601 -0.18201989 0.030133551 0.103987776 -0.055892766 -0.09643465 -0.00015020263 0.12750414 0.44599035 -0.20223875 0.30569097 0.011439796 -0.22392166 0.028194517 -0.1804727 0.16694817 -0.08215123 -0.2712399 -0.44842348 0.48934212 -0.037165817 0.25216305 -0.32134813 -0.26989603 0.27034715 0.64139616 -0.21574262 0.043666612 -0.449579 -0.5308658 0.4966746 0.1653835 -0.42966402 -0.26474994 -0.12608923 0.16256757 -0.2880159 0.04404141 0.2689129 0.036286093 -0.08131024 0.21873838 0.21966103 0.10129948 0.43193522 0.19507161 -0.27606758 0.16046225 -0.1129592 0.23851281 0.55910146 0.13762447 0.37373662 0.043236896 0.318378 0.40302134 0.38330355 0.50574 -0.11520871 0.6334132 0.34481314 -0.100624956 -0.07158228 -0.44861227 0.032417726 0.08248694 -0.6198755 -0.19721605 -0.6977093 0.20802179 0.10106336 -0.12697342 0.020590123 -0.0056578815 -0.5615344 -0.2071063 0.3559303 0.2247535 0.4583784 -0.062441375 -0.11915635 0.08487978 -0.36840132 0.10614366 -0.22104402
重力 0.2926286 -0.09130845 -0.41392195 -0.37788153 -0.26389894 0.30959076 0.15437299 -0.51704353 -0.040896744 -0.10664966 -0.098746605 -0.053627603 0.28214997 0.4415772 -0.2604292 -0.38901052 -0.09435328 -0.35663652 0.4587621 0.1657005 0.14259443 -0.5550497 -0.03274783 -0.08223896 -0.020312382 -0.29434058 -0.24583855 0.39149362 -0.16115515 -0.07800534 -0.35722244 0.30015525 -0.25877398 0.020434901 0.1887153 0.2125631 -0.27498516 -0.35447988 0.44128433 -0.13875374 -0.05432821 -0.35492396 0.13819605 -0.07898483 -0.102327324 -0.100490354 -0.11881683 -0.035716288 0.005945326 0.11903584 0.23250972 0.07764839 0.0451057 0.009122593 0.15192586 -0.44652095 -0.070151396 0.18341894 0.1764721 0.42042792 0.7063529 -0.28158268 0.79884356 0.27468157 0.085544445 -0.13982902 -0.06777647 -0.25640255 0.06972974 0.43150717 0.4020848 0.055316914 -0.081452675 0.2179053 0.29732144 -0.16220933 -0.25709653 0.04411716 0.2781155 -0.2762381 -0.4124721 -0.43813735 0.4538697 -0.06389104 0.1257455 -0.17236231 -0.09624779 -0.28122997 -0.30781952 -0.53351146 0.29359603 0.1437133 -0.32879624 0.010184967 0.2723842 0.051065534 0.064773835 -0.1375366 0.6398969 -0.28425527 0.6133759 0.019735415 -0.0877525 0.26208553 0.3195179 -0.08976984 0.25640815 0.0386273 0.010016431 0.9742071 -0.17406444 0.2797372 0.34794915 0.37554127 -0.035753664 -0.5433963 -0.25447276 0.13277327 -0.040443987 0.19575232 -0.6038321 -0.14082982 0.17124207 0.056537706 -0.062391274 0.29577073 -0.24189764 -0.0036613047 0.15854725 0.010338467 0.45807317 0.67972034 0.12986498 0.27175245 -0.04090709 0.6978473 -0.020676406 -0.2544071 -0.09897234 0.14993316 -0.1392016 0.30224878 0.1310175 0.008879361 0.4603858 -0.42469797 0.10318922 0.08703109 -0.39194995 -0.23603587 0.63065755 0.06335595 0.01375016 -0.12611595 -0.10923992 -0.17694114 -0.3934436 0.19321963 0.22144063 0.029491626 -0.122673005 -0.32738557 0.12596004 0.13201408 0.10879579 0.3645873 0.6523623 -0.20723842 -0.116840035 0.077923805 0.25437424 0.15788043 -0.059887923 0.022477033 0.5861456 -0.3803682 -0.40605646 0.067669936 -0.16662228 -0.43765104 0.29528022 -0.19513422 -0.06429741 -0.6938061 -0.20818463 0.4166171 -0.0716347 0.55879194 0.2016546 0.64828914 -0.027278377 0.17935532 -0.0832592 -0.234617 -0.37187052 0.526024 0.014079209 -0.017173566 -0.8564456 -0.10889623 0.05748975 0.81986856 0.28564894 -0.23972772 -0.76688397 0.24205399 -0.09826713 -0.03928737 0.24532339 -0.31391883 0.454291 -0.19667377 0.022452962 0.3828888 0.77772987 0.7555979 -0.6201935 -0.49329275 -0.30288693 0.004990049 -0.5095508 -0.22439106 -0.26944035 0.71550626 0.12707698 -0.2062941 0.0103631755 0.15191956 0.1145642 -0.24441184 0.35025436 0.33374497 -0.38147843 0.21796638 0.49950758 0.4586178 -0.039211057 -0.1631984 -0.6370564 0.05778461 0.49074328 -0.38213244 -0.68012476 0.44761285 0.120017074 -0.058330156 -0.31075302 -0.33010313 -0.4357827 -0.25457945 -0.15034081 -0.6648606 -0.68857574 -0.29951602 -0.32852745 -0.2984514 -0.4275745 0.007839709 0.021995224 0.022716202 0.35614264 0.9653479 -0.13839921 0.0050566504 0.053309675 -0.42948532 -0.03540464 0.27215627 -0.40148306 -0.3302697 -0.17154196 0.3422125 0.013810699 -0.042578366 0.1675881 -0.0800397 -0.11763762 -0.13564223 -0.35383967 0.07298885 0.054988317 -0.19619103 0.1057041 -0.019297013 0.073917106 0.09540751 -0.1221879 0.0023393447 0.05658082 0.032258872 -0.49180907 0.37934154 -0.25242123 0.26496565 -0.17432232 0.42400903 -0.4490599 -0.12409193 -0.31441694 -0.36182562
体积 0.15127884 -0.05175514 0.2050583 -0.41194 -0.05333221 0.051112756 0.788751 -0.40341446 0.3004986 0.03756171 -0.10588331 0.05594022 0.033871308 -0.24381444 -0.17705707 -0.37255397 0.3330261 -0.47484052 0.12615387 -0.11826349 0.25432038 0.030774297 0.17376557 -0.51221216 0.39161003 0.11284938 0.50699514 0.02187227 0.11020934 0.0046836836 0.33922556 0.4010572 -0.13704294 0.17350371 0.1314534 0.08000978 -0.64833015 0.11664334 -0.13685465 0.09727974 -0.4202374 -0.29226977 0.46720228 -0.6102333 0.36549583 -0.41298398 -0.57179993 -0.22637782 -0.03270887 -0.19489665 -0.16041084 0.49995613 0.06909315 -0.40221372 -0.07340027 0.041637145 -0.055445343 0.34408468 0.37787974 -0.13907085 0.5962799 -0.21446607 0.81631154 -0.12889886 -0.27565533 -0.6635979 0.09091612 -0.28187922 -0.21939299 0.01581838 0.18685082 -0.08918689 0.07420779 0.54166317 0.048494495 -0.008173759 0.04789952 0.50531733 0.17711751 0.22081606 0.35812497 -0.7122766 0.4133294 0.047244716 -0.20623112 -0.0023457264 0.17351767 0.07331186 -0.12485119 -0.2145392 0.476863 -0.16256922 0.06051761 -0.13059743 -0.08710113 0.124822706 -0.6213415 0.7149784 0.6825273 -0.22953194 0.17881985 0.3956291 -0.035841856 -0.558521 0.40375727 -0.20466118 0.109880656 -0.43364072 -0.09093147 0.6632042 -0.10359999 -0.13165197 -0.20868158 -0.14179723 -0.29653504 -0.55390936 -0.23025374 0.025180211 0.5227309 0.19084388 -0.32082966 -0.19345932 -0.0004984258 0.4005567 0.12194807 -0.13778087 0.08763426 0.682042 0.35960886 0.45313993 0.10140743 -0.010135395 -0.10513869 0.038437866 -0.08929351 0.14153332 0.091946006 -0.22651999 0.48040414 -0.071588844 0.33693993 0.5725461 -0.08313516 0.058419332 -0.2048784 0.26600412 -0.001780384 -0.15168254 -0.16588753 0.37367097 0.13968776 0.27148882 0.60349125 -0.039970785 0.20466737 0.43861252 0.07922633 -0.07043084 0.1314428 -0.39693967 0.5025949 0.060234252 0.31101838 -0.119850956 -0.11979265 0.19543754 0.87773746 -0.13803902 -0.07919587 0.63007617 0.475481 -0.5301928 0.091730446 0.110089526 0.30014294 -0.9300475 0.12336237 0.13524814 -0.17580034 -0.75922436 0.19921306 -0.27878368 0.2724955 -0.74013877 0.23854224 0.14148822 -0.47112116 0.43474972 0.2571208 0.30463094 0.0032458326 0.42985457 -0.25410348 0.15242155 0.082453415 0.3746431 0.08094857 -0.29726574 -0.4653054 0.31867293 -0.23633678 0.5107682 0.22678499 -0.06345735 -0.88297975 0.117753126 -0.06407472 0.59761375 0.2083766 -0.29364848 0.031718228 -0.9157218 -0.3988352 -0.03710447 -0.019242473 0.24982396 -0.51995707 -0.3892789 0.40032658 -0.4573528 -0.47813553 -0.23386896 -0.19435428 0.0017544382 -0.008014314 -0.205625 0.68589205 -0.007439944 -0.15958822 -0.10493988 -0.20500223 -0.009042702 -0.12705544 -0.49948305 0.25022048 0.21918036 -0.10252796 -0.265581 -0.80548894 0.26077807 -0.32547477 -0.0987741 -0.38732865 -0.094301365 -0.20422596 0.5206598 0.09650993 -0.62407416 -0.30032098 -0.038555816 -0.3518118 -0.28474596 -0.37618878 0.06917085 0.20948823 -0.13150336 0.104265355 -0.28993726 0.12714541 -0.12478015 0.6439819 0.22571003 0.22926468 -0.21319099 0.35530573 0.0483392 -0.26782244 0.14066018 -0.11661837 -0.043483865 0.004008246 -0.25675213 0.44842252 -0.21686472 0.5399893 -0.056809068 0.08338861 -0.27458316 -0.9386155 -0.08118736 0.17679319 -0.4762331 0.057449877 -0.18992992 0.22293305 0.4142176 -0.18715502 0.22464897 -0.12431116 -0.19976561 -0.022800487 0.33856112 -0.07431457 0.18095621 -0.19483598 -0.21267591 0.15501349 0.5831356 0.26573285 -0.66358674
排开 0.31827906 -0.13847911 -0.13535818 -0.19930206 -0.23583674 0.55276054 0.33603433 -0.5118413 -0.11680271 0.23575366 0.06718734 0.051252164 0.4801911 0.3569121 0.13013221 -0.32431057 0.14642191 -0.60663724 0.20629147 0.10616504 0.17916438 -0.15851878 0.27764285 0.13755122 -0.083773956 -0.20106679 0.51336247 0.4318466 -0.023515167 0.10083197 0.19332932 0.356973 0.052489504 0.2315952 0.16818063 -0.25004268 0.14597085 -0.004681839 -0.059981756 -0.10714237 -0.05713366 0.30416992 0.1915961 -0.14555119 -0.30283937 0.09012233 -0.6886539 -0.15106049 0.31671232 -0.07262951 0.9578182 0.017558359 0.25243866 -0.107686535 0.3964807 -0.1205501 0.124946326 0.5592644 0.34746668 -0.24465093 0.6860066 -0.6019665 0.42192316 0.2697974 -0.085920244 -0.30236748 0.33501008 -0.3245477 0.35213152 0.51109713 0.14435732 0.069212645 -0.06527945 -0.099565715 0.22565894 -0.2428761 0.49830744 -0.24864413 -0.050681204 -0.3441272 -0.3962938 -0.31347087 0.08067865 0.4533354 0.39657834 -0.31086922 -0.013770463 0.009942549 -0.32451546 -0.5122418 0.5644797 0.03007063 -0.22066313 -0.43533775 -0.37081692 -0.1400254 -0.013325989 0.25438395 0.48524737 -0.05645667 0.05693015 -0.054737467 0.23557957 -0.017141113 -0.044253223 -0.06245106 0.08826082 -0.32558748 -0.2770994 0.53156435 0.10163938 -0.34932095 0.19389158 0.26718584 0.11229553 -0.1403558 -0.076333 0.12746333 -0.032955404 -0.6541359 -0.12169775 0.11996651 0.14794683 -0.06490134 0.3653778 -0.17003666 0.02533207 0.027257271 0.21956503 -0.14557669 -0.4780342 0.09544933 0.29343247 -0.07515315 0.4496348 -0.44352356 -0.12669708 -0.43949226 0.20948048 0.21932387 0.35300598 0.2467151 0.100739315 -0.27278617 -0.25828385 0.13715008 0.22615121 -0.14078817 -0.039596934 0.03922338 0.062690385 -0.03586455 0.1977798 -0.05761173 0.042316046 -0.08182817 -0.37155578 -0.21593578 -0.159743 -0.16170765 -0.14384498 0.16735035 0.15742922 -0.22843611 -0.02857427 0.15990502 0.43315035 0.013898082 0.10437613 0.52183586 -0.15492469 -0.45460242 0.030705068 -0.08392454 0.30321386 0.051143102 0.29973373 0.21437827 -0.11180276 -0.027195342 0.03302947 -0.13555224 0.3936881 -0.36944652 -0.008062344 0.050142925 -0.14020279 0.20717107 0.12634723 0.59544885 0.38122064 0.26973963 0.22050399 -0.06064683 -0.16696504 0.09534977 0.31079006 -0.18415856 -0.41234216 0.5512831 0.06820434 0.23725851 -0.03192958 0.47679156 -0.09594576 -0.33414757 -0.031157166 0.43919304 0.3784115 -0.45653406 0.35008276 -0.79927105 -0.015849698 0.09245134 0.16213694 0.13481739 -0.31751505 0.025902359 -0.3433674 -0.47207108 -0.012547134 0.46989894 -0.3050197 0.31394672 -0.27362543 0.17565374 0.23843582 -0.2463535 0.07135024 -0.11873213 0.092753656 0.13551083 -0.36425436 0.19624318 0.10232906 0.00946024 0.11115669 -0.12368827 -0.10753147 0.47319308 0.15629484 -0.18729362 0.063703075 0.23030306 0.13618864 0.20002677 0.0095669795 -0.18267575 -0.24581929 -0.14217442 -0.35821718 -0.41480204 -0.26631254 -0.16502734 0.08778732 -0.08028958 -0.18351354 -0.23334439 0.23459838 0.05296654 0.24402301 0.43528453 -0.6592268 -0.23724563 -0.09168298 -0.39931196 0.08378189 0.13341652 -0.09081401 -0.39511755 0.036133166 -0.20053153 0.14674892 0.20072213 0.1328133 0.042168655 0.111571796 -0.49214482 -0.23711039 0.03937108 0.063797675 -0.31338245 -0.23729253 -0.47385696 0.14476548 -0.056921173 0.02906473 -0.08425075 0.13589108 -0.18089189 -0.116350405 0.4797807 0.26338786 0.45659027 -0.21983932 -0.30954397 -0.26845002 0.2537164 -0.32055494 -0.020261869
密度 0.48095965 0.2104127 -0.21276425 -0.39874238 0.031691756 -0.2856897 0.612733 -0.8515242 0.4667504 -0.32719278 -0.3099061 0.16359127 0.2614602 -0.17251608 -0.25517565 -0.6700795 0.21563211 0.08238614 -0.428679 0.09701426 -0.22434257 -0.34039146 -0.15677415 -0.29709372 0.48977327 -0.45287976 0.3335958 -0.09144822 -0.12093474 -0.06637881 -0.07651969 0.50051713 -0.18554188 0.259576 0.12920192 -0.6042976 0.1110265 -0.40264362 -0.3529164 -0.18760583 -0.41568384 0.0005007073 0.4485247 -0.43895566 0.20242044 -0.65326923 -0.92303896 0.20373127 -0.25080234 -0.55473083 -0.09130284 -0.29042268 0.38507655 -0.65245914 0.059020877 0.129689 -0.033986393 0.0954462 -0.06576179 0.03800651 0.8961343 -0.5253113 0.41902974 0.41338488 -0.014598169 -0.3539438 0.27705088 0.35448414 0.037970193 0.30300236 0.18224137 0.07036226 0.07338668 0.61274534 0.08664903 -0.42472145 0.0385678 -0.37288502 -0.15392527 0.3749142 -0.16005915 -0.3063884 0.39178884 -0.14637128 0.18741916 -0.5081274 0.44887498 0.39293727 -0.18176576 -0.586872 0.3650798 -0.3515444 -0.70610094 -0.720855 -0.5708146 0.1861296 -0.2509121 0.34865454 0.5962152 -0.6571798 0.18891066 0.30217683 -0.510516 -0.60877395 0.2780668 -0.0702367 0.5654227 -0.3775409 0.14827366 1.0579305 -0.6087077 -0.30238903 0.26697004 0.48652497 -0.20952584 -0.23109706 -0.49633828 -0.13732374 0.43249682 0.7772688 -0.25605556 0.322055 -0.045458537 0.047843996 0.09332363 -0.24388008 0.283052 0.78953904 0.42306823 -0.19928333 0.1626047 0.32177445 0.4741943 -0.19793184 0.42443413 -0.39093345 -0.15671606 0.031105611 0.73523426 0.42164135 0.12131879 0.23335251 0.15549937 0.0332876 0.044018712 0.019247314 0.13039581 -0.46550265 0.14185725 -0.0051460066 -0.25324783 0.44929665 0.18803002 0.052519064 0.24901716 0.16840625 0.027749645 -0.6752575 -0.059699222 -0.4623977 0.4639092 -0.36558044 0.25557727 -0.15719841 -0.1966217 0.32394645 0.6101363 0.11045389 -0.09001723 0.70362455 0.09258355 -0.47789693 0.20462461 0.058765385 0.3809661 -0.31614226 0.33377445 -0.0029786145 -0.02081951 -0.3079234 0.22513211 -0.20990749 0.1669252 -0.27019963 -0.25835606 -0.08015324 -0.20782284 0.5952626 0.30106372 0.43626532 -0.23090105 0.15500192 -0.33855873 0.16301025 -0.0918045 0.0569378 0.7558967 -0.04160932 -0.38330233 -0.09860944 -0.28836086 0.49706846 -0.024413565 0.39969173 -0.13388616 0.07705782 -0.025367824 0.22090328 0.7288312 -0.31318584 0.89523256 0.030815294 -0.7305874 -0.06163917 0.32131392 0.017838767 -0.6403264 -0.5140507 0.07221644 -0.22407056 -0.46774662 0.032588165 -0.093578935 -0.115046665 0.3326624 0.09497071 0.47641703 -0.21171568 -0.27063525 -0.048706632 -0.24102212 -0.30647743 -0.44553298 -0.12587106 0.026633168 0.22292241 -0.17922087 -0.07604597 -0.82369876 0.41773733 0.030494167 -0.20073585 0.010136247 0.2307158 0.3728897 0.54856795 0.46874422 -0.67661697 -0.23890013 -0.14094214 -0.42130265 -0.25316927 -0.86422485 -0.05710082 -0.29380712 -0.3064087 0.004713386 -0.6838971 0.122045554 -0.11031836 0.3358232 0.3206048 -0.10293262 -0.34468356 -0.3502121 0.17484069 -0.30974528 0.28211248 -0.17487139 -0.34102452 0.20979904 -0.042163465 0.9291886 -0.19215615 0.28346357 0.09248804 0.3629712 -0.053011183 -0.5627748 0.22753908 0.64264923 -0.038020063 0.0828115 -0.40734574 0.6507968 0.06130724 -0.3878436 -0.3323519 -0.115441374 -0.08675911 0.39302194 0.6998114 -0.09863754 0.79148597 0.045694817 -0.20595998 0.09343538 -0.11251399 -0.5694808 -0.5888441
所以 -0.22215706 0.2163733 0.05489596 -0.18042357 -0.11105818 -0.1508533 0.31592718 -0.17677136 -0.058224563 0.38269606 -0.121341795 0.08431494 0.16257004 0.33638036 -0.0033836346 -0.17550272 0.1186555 0.16545527 -0.040598813 -0.08497067 0.20185411 -0.11781457 -0.072413385 -0.099519186 -0.30539003 0.2873983 0.07724398 0.2775744 -0.0154847205 0.124762915 0.34521434 0.022667516 0.038730927 0.3422506 0.21111274 0.13386466 -0.002508922 -0.11783035 0.07466119 0.058804795 0.15931699 0.030494552 0.15439759 -0.26280525 0.3494842 -0.05527612 -0.23522061 0.15058218 0.040253475 -0.20559338 0.49548352 0.22209384 0.20554742 0.030936792 -0.14853616 -0.2397802 -0.19212216 0.059383027 -0.45853567 -0.028666526 0.23239154 -0.14311057 0.18906465 0.18365653 -0.18122338 0.02274896 0.09919743 0.0075944145 -0.054704588 0.0028521405 -0.23911937 -0.18520352 0.097729966 -0.00036124798 0.12734395 -0.4489328 0.27340406 0.04802889 0.028440097 -0.18857789 -0.21076833 -0.17084275 0.07067616 0.19628784 0.08643681 -0.008205172 -0.0076520476 0.28297806 -0.09627513 -0.34974945 0.1046729 0.07228198 -0.38118303 -0.11320222 0.101827644 -0.16256143 -0.17937914 0.11569052 0.2564714 0.0020123122 0.058244206 -0.2962954 -0.3468942 -0.24296394 0.39556724 -0.15510114 0.02156936 -0.17219043 -0.035998017 0.4452917 -0.14058976 0.25362056 -0.033816922 -0.2065276 0.1277321 -0.42729816 0.18732455 0.31207404 0.0070194304 -0.14134242 -0.109395824 0.03403717 0.08527385 -0.063016996 0.31219593 0.113882914 0.024300829 0.21806148 0.11795669 0.33903491 -0.029065222 0.07978835 -0.34393194 0.34113824 0.3266752 -0.1857612 -0.19515179 -0.15476242 0.01906899 0.07667976 0.060236476 0.075263046 0.105345994 -0.019099697 -0.17418277 -0.09826598 0.058208063 -0.15400864 0.0007372837 0.25304386 -0.10284453 0.1340468 0.061817378 0.15965809 0.110271655 -0.16565858 0.18282993 0.31458572 0.19028556 -0.0703068 -0.17488292 -0.27918237 0.09070126 -0.041645024 -0.07586411 0.09622532 0.21838903 0.25574443 -0.1410054 0.14289111 0.03183644 -0.20616388 -0.20459108 -0.015862528 0.3405376 -0.32893503 0.06756129 -0.09741387 0.016747335 -0.08786472 0.03634184 -0.109070726 0.17347057 -0.23020807 0.4186293 -0.29508883 -0.293359 0.11159349 -0.11086234 0.30387995 -0.019287277 -0.08976737 0.20316456 -0.2726819 0.18077983 0.029376743 -0.040501792 -0.2071921 -0.18514597 -0.08998461 -0.03641265 0.07378394 -0.040569026 -0.1360116 -0.15805505 -0.061501496 -0.07389772 0.16823544 0.26262364 -0.10873508 0.28913444 -0.082237944 -0.23032643 -0.43209642 0.14856626 -0.11086368 -0.19533093 -0.13188045 0.032532815 -0.31931245 -0.31225166 -0.29839057 -0.13433191 0.17281032 0.07293732 0.16668311 0.07241335 -0.165622 0.07376177 -0.0047091166 0.04302316 0.22311424 -0.15981178 0.20146589 0.098427 -0.044220384 0.31237185 -0.16309118 -0.16844288 0.09046855 -0.094933875 0.39453906 0.026129583 0.02777412 -0.21602689 0.04850472 -0.21996184 -0.116658576 -0.25954196 -0.052566946 -0.2180469 -0.015876064 -0.087970816 -0.19573045 0.07177297 -0.09522866 -0.19495694 -0.2292721 0.08632893 -0.02382633 -0.16842653 0.05920682 -0.010675855 0.03458912 0.15687455 0.3223793 0.15974541 0.024627943 -0.018684007 -0.09244996 -0.018674226 0.2575588 -0.21043342 -0.18933621 0.25319335 0.23926775 -0.19178943 0.08214163 -0.10720355 -0.13703276 0.290628 -0.10447894 -0.15236093 -0.40056095 0.21121809 0.24160054 -0.09515263 -0.0385144 0.28947636 -0.15600431 0.17167014 0.3516087 -0.033552688 0.3025393 0.0117723225 -0.07086123 0.042190995 0.06600344 -0.24496394 -0.49234846
潜水艇 -0.32082748 0.44087213 0.17697015 0.1586153 -0.05159135 0.06678497 -0.08652594 0.0016090942 -0.11244474 0.5625377 -0.31410375 -0.042606805 0.29744563 0.09986052 -0.1423653 0.39338413 0.3412662 0.0538458 -0.018707931 0.7361391 0.55279154 -0.033781122 0.2734343 -0.32639143 -0.3270228 -0.10147355 0.10569863 0.7206432 0.102611996 0.26172188 -0.017520254 -0.40975237 -0.38199288 -0.33723888 0.3946443 0.27171946 0.11291634 0.019992996 0.18829627 -0.13098739 0.16832554 -0.3421799 -0.25233674 -0.44106728 -0.22158352 0.24830915 -0.7104115 0.019037198 -0.07499545 -0.0884292 -0.13879134 -0.3011481 -0.027330292 0.3172567 0.057972126 -0.046495687 -0.29881582 -0.39701125 -0.34777793 0.3225058 -0.23783785 -0.30483568 0.87498105 -0.07692802 -0.2376773 -0.030812142 0.11118947 -0.26531142 -0.04599888 0.0017904267 -0.17062919 -0.015955864 0.09358757 0.07853602 -0.13622743 -0.17333508 -0.029356733 0.048749376 0.17099242 0.2402261 0.42318535 0.16660134 0.42459258 -0.08748087 -0.10166385 -0.12379573 0.42816478 -0.27240747 -0.13914813 -0.17773633 0.1281417 -0.07512639 -0.23045272 0.05599907 -0.8033417 0.24953873 -0.7729819 -0.0422553 0.77740204 0.2850519 0.70056874 0.5017664 -0.13702337 -0.5256768 0.6193081 0.19230606 0.27877367 0.033531588 0.28169566 0.3057328 0.054577813 0.5318513 -0.07800062 -0.1710072 -0.29961428 -0.31053117 -0.2847923 0.18534547 -0.10559453 -0.35770446 -0.24496229 0.6996217 0.14268072 -0.11702938 0.39011568 0.014215458 -0.065388665 -0.32542318 0.7968998 0.32572746 -0.13453463 0.4759504 -0.27698454 -0.7491791 0.20150952 0.5380272 0.29891294 -0.21199855 0.026379492 -0.3169216 -0.41779795 0.17923172 0.14989473 -0.30262044 0.015704295 -0.24873278 0.25647932 -0.4556635 -0.026149698 0.2037137 0.19921948 0.30530202 0.2094068 -0.479388 -0.4788365 0.0081921425 -0.07273834 0.5172123 0.59551066 0.0085247 -0.3024464 -0.016409524 -0.18867914 -0.25898567 -0.23000248 0.520583 -0.35964298 -0.7160433 -0.28849933 -0.16364184 0.41599333 -0.21222958 -0.0050857686 -0.06358294 0.29739642 -0.38274053 -0.08866554 -0.07595591 0.17458366 0.05581579 -0.17316966 -0.016909324 0.4291607 -0.17842567 0.369394 0.3270079 -0.453736 0.28578722 0.27683634 0.4548226 0.054324616 0.14486888 0.27649045 -0.31999603 -0.57511705 0.03883208 -0.10113336 0.21466574 -0.7959812 0.26942033 -0.122299254 0.5377712 -0.331842 -0.16411904 0.23131077 -0.47694156 -0.1751086 0.08838976 -0.21085723 -0.6847263 0.5537103 0.012996025 -0.0051747393 0.16650695 0.14524037 0.19558498 0.30436435 -0.5205614 0.34004638 -0.081583984 -0.41945985 -0.022927517 0.35105804 0.6480992 -0.04670563 -0.2503367 -0.36921698 0.487944 0.21860047 -0.4445877 -0.102908716 0.19488405 -0.36922148 -0.1070204 -0.1199012 0.016354075 -0.019187354 0.0804315 -0.18986122 0.26642132 -0.1889723 0.2884598 0.11468733 0.15121388 -0.1191584 0.10222378 0.20021051 -0.060440693 -0.47868803 -0.062670186 0.2785994 0.12158533 -0.5600946 0.22345382 0.24413946 0.20475768 -0.051832642 0.10477385 0.7379013 -0.16701864 -0.016347215 0.354996 -0.055603024 0.37688273 0.29540706 -0.18320273 0.60448396 -0.24351346 0.015708912 -0.27401933 0.66262674 -0.20833862 0.14095066 -0.5296129 -0.44190067 -0.023391955 -0.038631674 -0.22976598 -0.16918051 -0.044577453 0.18912297 -0.08520105 -0.09298573 -0.81304836 -0.091642305 0.19440639 -0.4075493 0.21393953 0.29401335 -0.031939134 0.5141825 0.72506285 0.31641573 0.87650365 -0.12967429 0.21043389 -0.69767964 0.42187634 0.5548089 0.12117668
等于 -0.027241873 -0.13401392 -0.19891313 -0.43628937 -0.04359224 0.506412 0.1701391 -0.16752577 0.41130427 0.05199271 -0.17333435 0.029244673 -0.19673067 -0.033654913 -0.31604847 -0.15021826 -0.06144055 -0.041989334 0.2584625 -0.1402491 0.24976774 -0.17367597 0.053991467 0.13788769 -0.10974774 0.44089568 0.49826363 0.33377504 -0.17492872 -0.4969703 0.42918497 0.18505368 0.3128284 0.29231426 0.29769665 -0.33483166 0.16032927 -0.11047143 0.047755133 0.3235229 -0.12126018 0.36883542 0.4049834 -0.22298059 -0.0861283 0.14230703 -0.6797972 0.35518923 0.17154545 0.06617662 -0.15482087 0.012381782 0.19960321 -0.49842405 0.24227175 0.2216738 0.11332111 -0.2255689 -0.13301183 0.1030483 0.64341575 -0.5338604 0.33733633 0.21734852 0.013042735 0.32588053 -0.26262814 -0.16357818 0.17843187 0.33968905 -0.1350473 -0.13085522 0.0022219494 -0.14576916 -0.028676918 -0.27274472 0.35685486 0.2924765 -0.034181163 -0.16056833 -0.54525834 -0.65502155 0.22689608 -0.35438818 0.043055277 0.07470683 0.0051254486 0.041689575 0.0018564799 -0.10658791 0.39971837 0.37949988 -0.57644135 -0.11445097 -0.4528619 -0.049496707 -0.05771761 0.3174737 0.4212787 -0.17535391 0.058186255 -0.06530027 0.22957663 0.26083386 0.39177147 -0.05465252 0.074128926 -0.29779273 -0.15655427 0.33382067 -0.19452123 0.14202029 0.0992603 -0.1803363 0.16350235 -0.5632509 -0.43962687 0.07356756 0.44857046 -0.25031665 -0.086928055 -0.30203503 -0.18767089 -0.32960257 -0.04401482 0.25264078 0.056669876 0.06279381 -0.13112149 -0.33664107 0.10119789 -0.16289394 0.15315159 0.28981367 0.18897974 -0.14854926 0.24856246 0.16839013 -0.16015308 -0.13995083 -0.013386355 0.061022613 0.17983744 0.00315502 -0.33412924 0.16252993 0.32774293 -0.39925307 -0.24516636 -0.07782154 -0.089478225 0.18263008 0.2300671 0.46103573 0.114230275 -0.08815013 0.11755037 0.022074057 -0.06448137 -0.4062527 0.4587731 -0.032617953 -0.5324868 0.4345525 0.15158182 0.21989426 0.66269505 0.33922675 0.15776195 0.604692 0.033777848 -0.10192283 -0.10726711 0.12523454 0.45840487 -0.054684535 0.058342785 -0.21490799 0.4760803 -0.54329485 -0.6039411 -0.25514755 -0.20450956 -0.07474973 0.12131068 -0.058134254 0.14761806 -0.066145115 0.17929234 0.44139943 0.22102119 0.26097676 0.027015362 0.12614326 0.18150601 0.104721345 -0.31820676 -0.43150142 -0.4757439 0.087717004 0.22813036 0.4449887 -0.05773679 -0.25346124 -0.65598905 -0.01141702 0.17738572 0.33072868 0.36843956 0.21725607 0.49264815 -0.03664901 0.15682887 0.24333575 -0.09384658 0.18981391 0.12740506 0.123608254 0.16659048 -0.58546823 -0.20123135 -0.14471412 0.4090496 0.48310193 0.01756667 -0.10177675 -0.17537946 0.11429465 -0.16738905 -0.10388322 0.24529608 0.19013278 0.3781048 0.09673881 -0.2877003 0.5037339 -0.08945354 -0.10411521 0.17846856 -0.13532066 -0.03898964 0.15430552 -0.21380489 0.038560428 -0.17426747 0.014737278 0.21322489 -0.099009976 -0.5168392 0.0875491 -0.08544599 -0.32297173 -0.42647704 -0.1624739 0.025471663 0.19783011 -0.0026761752 -0.04939578 0.17976137 0.062494088 0.08372271 0.18860418 -0.28311306 0.017578015 0.58881146 0.07333913 -0.11588135 0.577441 -0.047478143 0.13319911 -0.021869428 0.2926461 0.3162126 -0.17877851 0.3882704 -0.10634637 0.44984353 0.0914858 -0.39160097 -0.39163542 0.25329775 0.3061018 -0.21096352 -0.20689608 0.4053332 0.57297695 0.17963849 -0.4148966 -0.061380696 -0.14085667 0.19829224 0.8200717 0.13210052 -0.08958506 -0.30141115 -0.04928737 -0.13583511 -0.24568132 0.04759886 -0.33856294
加速度 0.25772357 -0.13526039 -0.48734927 -0.27166644 -0.01555575 -0.1627277 -0.046308603 -0.4592212 0.01283612 -0.16645844 -0.14719221 -0.38665226 0.3952544 0.5517986 0.13653521 -0.39556614 0.023446327 -0.54013056 0.38652205 0.4420679 0.07388703 -0.41310054 0.39160922 -0.10763055 -0.24748845 -0.19787352 0.34325445 0.36460486 0.26619935 -0.29700828 -0.10349397 0.51571643 0.14357598 -0.12950706 0.2844969 -0.54398465 -0.05737408 0.24048638 0.6069364 0.2662375 0.032215185 -0.04953866 0.46800756 -0.426436 0.53667814 -0.31237042 -0.6446902 0.49209124 -0.392457 -0.33312422 -0.10262476 0.6166847 0.14948687 -0.60515684 -0.27796328 -0.670248 0.12962751 -0.009628371 0.35471663 0.005194206 0.6025267 -0.33064616 0.9535444 0.1883675 -0.24696225 -0.1409699 -0.0071599693 -0.017062716 -0.10065449 0.67196226 0.5683531 0.14641707 0.286609 -0.10728596 -0.12972195 -0.34429327 0.040151555 0.20166963 -0.009755225 -0.015696261 -0.4842373 -0.3868962 0.2710612 -0.29355544 -0.285808 -0.32972372 0.20272766 0.3488821 -0.4558203 -0.70123744 0.26360458 0.16198643 -0.57486963 -0.3620738 0.27341837 0.070670485 -0.004272515 0.23428921 -0.052745078 0.15387039 0.8664963 -0.0174343 0.1642589 0.05152238 0.5145789 0.06473936 0.07504794 -0.10918483 0.4879475 0.6137332 0.07888205 0.040834446 0.21073413 0.1458296 -0.36854583 -0.62456673 -0.21713087 0.07170879 -0.16939534 0.3907797 -0.45059475 0.025163343 0.34787142 0.3579091 0.0670863 -0.03088972 0.08148113 0.7626466 0.49968404 0.024660377 0.28368554 0.32051933 -0.15576355 0.018954914 0.116801456 0.2793317 0.13611476 -0.39468277 -0.062581554 -0.08997393 0.8836228 -0.6812894 0.17821495 -0.13338794 0.12549466 0.13319483 0.08345441 0.08495949 -0.43651587 -0.59413433 -0.6296474 0.29521942 0.10801733 -0.0923594 0.024858862 0.3514186 0.17688371 0.36904365 -0.42069224 -0.4469927 0.3939039 0.22740266 -0.07661586 -0.091884464 0.08626736 0.60911244 0.3641672 0.42401922 0.092162274 0.09882323 0.07008917 -0.43824518 -0.018218994 0.15380779 0.6448329 -0.16814837 0.15444142 0.36807588 -0.16293438 -0.30112556 -0.18657842 -0.69112855 0.45734107 -0.96804535 -0.06462907 0.230275 0.2122546 0.5994324 0.35497826 0.3180957 0.19152847 0.16111998 0.08044391 0.08036087 -0.52690446 0.25453964 0.31157157 -0.0009519267 -0.34344545 -0.46253136 0.38971815 0.16472337 0.23000772 0.08606731 -1.1399202 0.33574325 0.09977246 0.37859067 0.18899015 0.15941922 0.37364468 -0.33894137 -0.46464664 0.16288352 0.45945102 0.47231397 -0.39561167 -0.31356236 0.11960362 0.1280705 -0.38018206 -0.0060790307 -0.08896896 0.19346707 0.2532413 -0.16081284 0.2717582 0.07425856 0.18945633 0.22825077 0.5203105 0.43770793 -0.26671845 0.29809153 -0.16851747 0.15816435 0.14844953 -0.12367564 -0.42537734 -0.18337065 0.107355334 0.1537178 -0.5868595 0.2532121 0.19941033 -0.10341333 -0.043347813 -0.61620927 -0.48954904 -0.5312597 -0.24420579 -0.17990477 -0.14336854 0.28052503 0.0034746989 -0.3341712 -0.16573848 0.08564569 0.61770856 0.18421733 0.32319185 0.6610621 -0.17442551 -0.32439837 0.38852924 0.07712255 -0.22454715 0.30417204 -0.3820927 -0.23363206 -0.15335895 0.7471614 0.5055729 0.10623435 0.30414242 -0.053039283 0.3228919 0.25666392 -0.49132258 -0.05873741 0.08922808 -0.33269978 -0.1595175 0.19047749 0.23558046 -0.17842597 -0.53144795 -0.53988415 0.22652012 -0.2315084 0.34029293 0.11671116 0.29555425 0.07030364 0.28297296 0.080316015 -0.24568275 0.110951036 -0.095729634 -0.20264407
时 -0.23785445 -0.13013111 0.06200047 -0.326568 0.07637578 0.0024199502 0.20856951 -0.1003397 -0.07438904 0.114731565 0.06509068 -0.06331542 0.15538082 0.016406935 -0.029779311 -0.11324711 0.1804746 0.17833905 -0.2633894 -0.022727739 -0.009711851 -0.44723195 -0.20924845 -0.108743824 -0.2468773 0.28818554 0.2331376 0.57947373 -0.054358594 0.070887886 0.21621317 0.08258215 -0.18863776 0.13531691 0.075217485 0.30835953 0.004407882 -0.3784143 0.26032516 -0.15168718 0.2794914 0.1706569 0.14621356 -0.2648487 -0.18062004 0.1324358 -0.023498412 -0.1192261 0.15456915 -0.1919142 0.3518246 0.0827858 0.17306711 0.34369284 -0.033226214 0.058429953 -0.17961411 0.28050166 -0.106160685 0.2196669 -0.35933605 -0.24104631 0.079796135 -0.068855524 -0.019549677 -0.17387834 0.18472195 -0.29712728 -0.356627 -0.037527896 -0.115528874 -0.11199354 0.48334303 0.16637142 -0.51389605 -0.20856518 -0.07790658 0.17837489 0.13345656 -0.23080581 -0.24867463 0.03206684 -0.2914179 -0.1957523 0.1316555 -0.13222444 -0.17606369 0.046457402 0.1809895 -0.019683866 -0.12273167 -0.18379438 -0.35689524 -0.22156653 0.26969147 -0.15636857 -0.3213609 -0.3179079 0.38515493 0.11214128 0.12784824 -0.032949254 0.0785512 -0.29073474 0.27089813 -0.40717393 -0.12045338 -0.37042284 -0.11127367 0.13278766 -0.007274546 0.11570649 0.068878286 -0.0044280146 -0.10927268 -0.24874291 -0.060463674 0.018874211 0.006254872 -0.18326014 -0.3473575 0.10142032 0.36344844 0.0034818305 -0.30734804 0.2519243 0.039719228 0.1309489 0.06492035 0.20216814 -0.10792287 -0.0024332206 -0.23628515 0.17859803 0.5014882 0.0045005465 -0.07502286 -0.01031607 -0.013070064 -0.06970585 -0.09563993 -0.16128342 0.021920823 0.013072265 -0.30578452 -0.015931971 0.09364584 -0.32633865 -0.19524719 0.11418173 -0.20194446 -0.100903854 0.104936145 0.2737322 -0.08758653 -0.07903148 -0.015347453 0.23483472 -0.035200633 -0.27815992 -0.5979213 -0.06356228 -0.11392253 0.038097836 -0.5262492 0.11091047 0.21058574 -0.082472 -0.014681718 0.21243271 0.056681227 -0.22773562 -0.28729966 -0.15232888 0.3293572 -0.31908897 -0.29681703 0.22094364 0.26343805 0.095108464 -0.0343378 0.010250453 -0.037630636 -0.09054229 -0.03225046 0.2339953 -0.086946875 0.30035564 0.0714976 0.46958104 -0.18207553 0.22120151 0.29326266 -0.05703028 -0.28662348 -0.17813852 0.18492033 -0.02323881 -0.6109128 0.091250494 -0.11608669 0.27603498 0.13097507 -0.13014688 0.10281075 -0.28129986 0.1803339 -0.21602635 -0.095174104 -0.1981377 0.48686093 -0.19529818 -0.46585843 -0.1650596 0.10704135 -0.1931581 -0.15060942 -0.031074267 0.23556587 -0.28405258 0.077566735 -0.35933968 -0.1874491 0.19423041 -0.096168965 -0.11975444 0.022349212 0.04538499 0.103129484 -0.12790589 0.20709652 0.35658124 -0.19407418 0.11843173 0.20073801 0.15974183 -0.08473654 -0.012873178 -0.18658662 -0.0754055 0.04468237 0.2520929 -0.25496686 0.39483407 -0.24976993 0.18341152 -0.44071174 -0.36876705 -0.06652123 -0.40238142 -0.31112978 -0.35914114 -0.34761173 -0.46602994 0.1277651 0.22492474 -0.07320786 -0.08403397 0.10884228 0.14669998 0.06797303 0.06187023 0.04176935 -0.0588107 0.4044992 0.23392507 0.11644152 0.11724334 0.006208612 0.0038357924 0.28101888 -0.21142773 -0.19157366 -0.16364327 0.053765614 0.30336502 0.081398316 -0.033437822 -0.1702735 -0.058634818 0.00864221 0.07151695 0.2146042 -0.106437854 0.011250667 0.14314084 -0.21851842 0.014735279 -0.09842965 -0.067518376 0.35446352 0.5176904 0.35751793 0.44927508 -0.26198375 0.0013757908 0.115588054 0.3227618 -0.058936447 -0.0860635
变大 0.09584035 -0.15935159 0.2126305 -0.4840017 -0.10455415 -0.2689582 0.4390302 -0.026720664 -0.1996549 0.08705569 -0.03462784 -0.07931411 0.045463875 0.19464925 -0.029381886 0.012290701 0.06376344 -0.28205353 0.11697156 0.2523816 0.76483214 -0.054923493 -0.5536203 -0.03486179 0.22786224 0.18336822 0.026888384 0.44507456 -0.40217772 0.44149116 0.27803218 0.44537815 -0.12548086 0.09499482 0.014782137 -0.4164797 0.23291956 0.19088246 -0.044300962 0.18188496 -0.0039550015 -0.031197071 -0.039912086 -0.5275921 0.22819135 -0.18582417 -0.28072134 0.14108042 -0.26030082 0.052329365 0.09874529 -0.29268932 0.24398251 -0.04317514 -0.06339637 0.027077777 -0.1085098 0.2588452 -0.6484402 0.21951666 0.18080847 -0.4267041 0.41021937 0.3467422 -0.046041753 -0.2357128 0.06373799 -0.080039665 -0.3516624 -0.21835563 -0.19086316 0.012714121 0.06537121 0.18792194 0.1772995 -0.09630194 0.31567195 0.35870025 0.0029104594 0.19574435 -0.7586335 -0.6645215 -0.013190828 0.37561586 -0.13329083 -0.3290474 0.099678636 0.101471975 0.20731713 -0.44983822 0.57222366 0.6328465 -0.14438103 -0.65512025 0.16792132 0.0029416936 -0.43200368 -0.4325468 0.3807801 -0.08860696 0.063176766 -0.16227938 0.037790462 -0.33460113 0.29742122 -0.41653782 -0.023581946 -0.031151015 -0.0023280457 0.06884094 -0.289266 0.16487803 -0.12551115 0.27230105 0.21322323 -0.24161385 0.048582368 0.20799166 0.3732144 -0.20003775 0.06047245 -0.025318885 0.20184453 0.6525917 -0.2800558 0.1307427 0.3320471 0.25258884 0.0924684 0.17822292 -0.03692572 -0.12094472 -0.15627779 0.08581488 0.009856746 0.0085014105 0.09721244 -0.15093039 0.2545185 0.16712631 -0.40713432 0.18607864 0.29024822 0.0089266775 -0.1701998 -0.45392245 0.2445836 -0.26446474 -0.5856348 0.08265287 0.09945629 0.4069072 -0.12269707 0.44908866 -0.201056 0.30384406 0.20723888 0.71922284 0.3504171 0.29764497 -0.19449347 -0.083634175 0.14401358 0.18131003 -0.2002788 0.0660164 -0.045877412 0.070433766 -0.20086296 0.60696757 -0.20589325 -0.41000545 0.036942363 0.049698003 0.40870327 -0.2947812 -0.33174485 0.5260946 0.4572498 0.17293508 -0.34189847 0.17310306 0.6733724 -0.61116743 0.2886241 -0.09623419 0.05199166 0.07253729 -0.1568067 0.24935639 0.15832195 0.23027092 -0.3709945 0.066329665 0.055049125 0.12624007 -0.41708863 -0.04931845 -0.122225784 0.17287686 -0.12045521 0.9203193 0.2221356 -0.07084577 -0.20918499 -0.304144 -0.22120786 0.28016028 0.12648697 -0.40340167 0.03795662 -0.6175663 -0.36869347 0.10985114 0.20201032 0.46081775 0.091127396 -0.5588874 -0.08080789 -0.50341076 -0.2599464 -0.36645105 -0.14623341 0.3717518 0.30374208 -0.33075178 0.39754772 0.2327552 0.21564211 -0.6317914 -0.018065803 0.22613423 0.25489554 -0.33500305 0.5969273 -0.14184329 0.21555537 0.04388642 -0.5948625 0.22276467 0.22848193 0.300587 -0.19418953 0.117554195 0.023800895 0.55111605 0.42299277 -0.2825743 -0.19053987 -0.55636775 -0.6165946 -0.52143127 -0.341139 0.13708109 0.26004192 -0.13470498 0.5644846 -0.35966173 0.03311267 -0.3176441 0.4375931 0.12144782 -0.37692824 -0.3064263 0.2767715 -0.2633845 -0.3337537 0.39395958 -0.07985292 0.08555581 0.25218934 -0.2024754 0.012142525 0.08920995 0.5241309 -0.101000026 0.42190972 -0.40352717 -0.34038344 -0.17406629 -0.27697867 -0.32689294 0.2988474 -0.5227525 0.4838376 -0.028914573 0.08829348 0.02506367 0.08567159 -0.2276811 0.08610105 -0.04515104 -0.2283731 0.118116304 -0.57312465 0.12873809 -0.022340672 -0.10229888 -0.2605459 -0.05406929
乘 0.3155674 0.244467 0.09746431 -0.11701366 -0.548048 -0.23967093 0.3011594 -0.40434733 0.36133042 0.14517666 0.120899945 -0.60033643 0.024023976 -0.23240976 -0.10100901 0.102939345 0.11882067 -0.60412616 0.2675775 0.2618636 -0.3888816 0.10232305 -0.08930131 -0.044322103 0.0726676 -0.3133082 0.13447577 0.30117247 0.25040033 -0.16404805 0.21796712 -0.25529307 0.2223879 0.15731505 0.42519602 -0.44750625 -0.04547475 -0.043800842 0.20273608 0.076820195 -0.39205584 0.59288484 0.22147852 0.33563605 -0.19839649 0.41820997 -0.0988005 0.20635556 0.347986 -0.14130133 -0.16976893 -0.4666392 -0.34767452 -0.42561415 -0.21461801 0.18816212 0.5784721 0.11301633 -0.61744833 -0.016032064 0.36386585 0.21423264 0.36779463 -0.37263313 -0.30459663 -0.797788 0.5630544 -0.17428984 0.2991317 0.51318175 -0.1933982 0.14896768 0.1391431 -0.048414357 -0.4098815 -0.11642287 0.6350565 0.017000636 0.036036156 0.13458763 0.3737277 -0.48084056 0.4182308 -0.504938 0.0017780429 0.03969784 -0.1542465 -0.21298356 -0.13194093 -0.43460613 0.22256982 -0.41216496 -0.80962896 0.089345455 -0.38458627 0.008751723 0.015267581 0.22571854 0.40334746 0.08060049 -0.1356461 0.05904694 0.27480128 0.46484196 0.075716145 -0.52210486 0.0939994 -0.09502166 0.824172 -0.13547201 -0.1666751 -0.21531719 -0.15644167 0.3371043 -0.29500836 -0.2135059 -0.31439653 0.3748054 0.1642552 -0.117476955 -0.3588524 0.21110733 0.25827116 -0.15340252 -0.027956711 -0.07965194 -0.36066225 0.6460117 -0.029536804 0.23700823 0.040436525 0.020770932 -0.18106607 0.27376902 -0.0965104 -0.1205878 -0.1260694 -0.44561878 0.02595383 -0.090335555 -0.15420018 0.12476399 0.48224056 -0.21354343 -0.22224998 -0.16524003 0.19319527 -0.30527446 0.11613796 0.1560077 0.08585881 -0.21134405 -0.14524464 -0.06680257 -0.13519612 0.67296493 0.016298445 0.38154644 -0.21166095 -0.014957123 -0.3940019 0.016789278 0.2796171 -0.5547149 0.06354067 0.53534096 0.19401015 -0.55676657 0.0011273662 0.4927874 -0.32938352 -0.22955371 0.052954733 -0.17712311 0.33939257 -0.21055596 0.17310388 0.21913183 -0.008907166 -0.7058123 0.21475838 0.06903816 -0.6937131 -0.5202258 0.36252308 0.7143197 -0.37612298 -0.27336448 0.26029357 0.2557143 0.2834555 0.23193556 0.33342245 0.25923467 -0.10363571 0.10790078 0.25850943 -0.39879286 -0.40086448 -0.027686918 -0.07726207 0.06510576 0.17060193 0.2879678 -0.17213489 -0.19272852 0.21647587 0.26000273 0.058745015 -0.30427822 0.7677394 -0.3876138 0.1515298 -0.1948022 0.45896637 -0.062475484 0.1383396 0.1676311 -0.15541597 -0.6605986 -0.12053195 -0.28373614 0.08338011 0.002870956 0.2842705 0.20307545 -0.023099076 -0.35356447 -0.32904077 -0.12997164 0.2506031 -0.15551834 -0.094713345 -0.6866882 -0.18069974 0.32490954 0.20820874 -0.035058156 -0.39572403 0.57366735 -0.2662593 0.53398186 0.00016860555 -0.20148663 0.19153298 -0.10881936 -0.3233042 -0.0436827 -0.213578 -0.101668194 -0.08795179 0.4779608 -0.17313588 -0.40522197 0.024868943 -0.35593316 -0.31013137 -0.22130115 0.4808554 -0.16827227 0.8497434 0.11160778 0.15210178 -0.41203338 -0.2148603 0.02445071 0.054812193 0.20009144 -0.044786546 0.15995817 0.21065736 -0.076853596 0.57532066 -0.15343435 -0.0040648407 -0.11751077 0.27423164 -0.35664317 -0.19569084 0.2843176 0.03663697 -0.54366165 -0.16413604 -0.33046502 0.35883436 -0.20374808 -0.1965779 -0.21755728 0.55240965 -0.7204826 0.6399884 0.57578564 -0.033895962 0.34682384 0.34749073 -0.20465066 0.4425 0.09157178 -0.10180128 0.2897477
因为 -0.092598245 0.3685044 0.14491358 -0.10382653 -0.0044406336 -0.114843294 0.2648609 -0.23540889 0.018317807 0.20502798 -0.17497247 0.14400132 0.3339673 0.3124062 -0.005153659 -0.1887104 0.04901912 0.071508855 0.044166874 0.07399153 0.15257992 -0.025352411 -0.13843486 -0.14550641 -0.31775475 0.21753041 0.1289703 0.18602966 -0.098574825 0.20327227 0.359455 -0.1293582 -0.10826812 0.10173976 0.17688194 0.07581711 0.20354061 -0.012643168 -0.011163567 0.33235902 0.08007261 0.18942788 0.22204487 -0.31734976 0.14590034 -0.11420563 -0.2734582 -0.12243726 -0.087796144 -0.26355073 0.24406935 0.23201616 0.14934972 -0.022698771 -0.096529506 -0.31679916 -0.09141867 0.13546702 -0.30531994 -0.08517325 0.067643 -0.11269653 0.043902446 -0.011840387 -0.3467396 0.061786275 -0.15218735 -0.04195278 -0.043831825 -0.030154308 0.015663031 -0.100252375 0.06468413 -0.039659254 0.04430619 -0.26465198 0.29368544 0.14749591 0.13160211 -0.22061282 -0.22155933 -0.28259566 0.041429337 -0.1614854 -0.10593776 0.08717363 0.07427945 0.15838778 -0.071396366 -0.20995769 0.1298024 0.04136701 -0.2087396 -0.06355135 0.019995384 -0.20959246 -0.05499129 0.11164039 0.16877201 0.064516544 0.18834482 -0.12979689 -0.26874465 -0.14034809 0.24716975 -0.3198745 0.011460891 -0.07938555 -0.0921049 0.4765629 -0.11051594 0.10037598 0.089784235 -0.31383234 -0.010021391 -0.2104176 0.20377707 0.2418213 0.01020809 -0.21315418 -0.40129805 0.03517692 -0.09059642 -0.08099692 0.02184855 0.11778799 0.073530406 0.14445697 0.21108371 0.2253237 -0.0059916703 -0.003448711 -0.11219094 0.09198889 0.292011 -0.12926775 -0.07214879 -0.29147077 0.13963631 0.05829534 0.26417246 0.051492576 -0.11006718 0.028664943 -0.30358568 -0.02406082 0.20305 -0.29668036 -0.11787005 0.33256865 -0.063286506 -0.002571177 -0.08155365 0.21611579 0.14061742 0.03121138 0.10360056 0.22065009 0.08836151 -4.6501584e-05 -0.21388733 -0.20180134 0.011645952 -0.031921104 -0.2180135 -0.15344493 0.28539422 0.40528294 -0.022006843 0.009959157 0.13168745 -0.1223981 -0.38855374 -0.09406452 0.32475242 -0.2784932 0.21753353 -0.028664628 0.16317962 -0.15252224 0.052050896 0.016519943 0.011481731 -0.20225306 0.14278454 0.13232729 -0.07649454 0.0193628 -0.23855512 0.20014945 -0.09947003 0.063650645 0.18764585 -0.14851214 0.07023737 0.118336216 -0.06687807 -0.06100532 -0.09218469 -0.09593004 -0.17871937 0.2783368 -0.028040668 -0.03289847 -0.24561854 -0.13892217 0.12141372 0.028182197 0.35232732 -0.13111171 0.22477376 -0.028845416 -0.05311289 -0.4234732 0.29822415 0.09266122 -0.14345917 -0.1855767 0.16977623 -0.38368675 -0.25044364 -0.1446948 -0.1479405 0.2303174 0.18461816 0.20671304 0.26860955 -0.050068807 0.08260376 -0.14531915 0.1433929 0.20679861 -0.28851372 0.087564215 -0.17615895 0.20566392 0.39915395 -0.07581175 -0.20133483 -0.09963043 0.095162034 0.34777033 -0.037746627 0.13370529 -0.3182429 -0.063621245 -0.2519306 -0.07637891 -0.15581872 -0.078813635 0.07128844 -0.028891742 -0.06737051 -0.41777864 -0.17698926 0.121675886 0.0055681127 -0.31420672 0.18112457 -0.1549115 0.028552262 -0.028069269 -0.018846435 0.22270827 0.077129334 0.114168234 0.1170425 -0.038146414 0.26232618 0.17996809 -0.18521962 0.2591964 -0.29294795 -0.18809552 0.2983566 0.21533339 -0.010809617 0.15591389 -0.20266925 -0.19606498 0.15392555 -0.076031305 -0.136259 -0.44192 0.22509904 0.25594097 -0.10394885 -0.12279463 0.2694743 -0.01280074 0.05891079 0.2792076 0.00824345 0.2785007 0.01429191 -0.1517495 -0.15535188 0.0992681 -0.13935554 -0.22086272
上浮 -0.15308948 -0.18117706 0.053019583 -0.31798983 0.108443454 0.19998711 0.33981782 -0.30509964 -0.071252786 -0.019369809 -0.014616752 0.2086844 -0.123774745 0.36553878 -0.021841094 -0.5576673 -0.28408903 0.1618557 -0.24199352 0.32030222 0.65188205 -0.3963795 -0.20939153 0.09836138 0.21616144 0.010152383 0.55005634 0.38552806 0.11715762 0.39526656 -0.07382763 -0.2267151 -0.38716257 0.12159621 0.30377346 0.45457494 -0.3021094 -0.0033336023 -0.1775643 -0.18182777 -0.7047223 0.025092257 0.1722033 -0.08620037 -0.54492587 0.26939064 -0.521181 -0.3699647 0.26713523 -0.2252982 0.13074236 -0.12432934 -0.4592391 0.23416427 0.14840278 0.38726914 0.2663035 0.31670898 -0.37411714 0.13881123 0.37964064 -0.5529846 0.90655917 0.25592747 0.14367282 -0.00604189 0.10912776 0.013830864 0.55427235 -0.6428016 -0.26614738 0.082197346 -0.2538455 0.02416149 -0.17708847 0.23100746 0.24288504 0.18673047 -0.20987312 0.1667598 0.02111741 -0.1408534 0.21263428 0.18092747 0.18337378 -0.63780165 0.39144167 -0.4708702 0.22964057 -0.094456755 0.045551524 -0.036809996 -0.33053914 0.030483725 -0.00026780315 0.4186253 -0.44304183 0.11010357 0.3697753 0.20204282 0.093901746 -0.09527604 0.4492362 -0.065211326 -0.023298042 0.13512595 -0.058242287 -0.2444086 0.7915371 0.11537802 0.12316765 0.2794128 -0.13480254 -0.073481746 0.006673353 -0.2132501 0.10219492 0.17651817 0.3290421 -0.42952523 0.18972358 0.7068154 0.07263635 0.26947126 -0.00012345528 -0.39423838 -0.65309805 -0.12484637 0.07846434 0.43804428 0.07310195 0.3571554 -0.16958015 0.13445064 0.012013628 0.41261092 0.08826638 0.008522231 0.25749224 -0.5727054 -0.15517856 0.14749742 0.27203256 -3.2451353e-06 -0.027385283 -0.44212982 0.3464311 -0.119902365 0.029303258 0.025345787 -0.05547109 0.17376399 0.013670149 0.051282667 -0.07719118 -0.5772625 0.4989341 0.114161395 0.28650603 0.18566738 -0.061585385 0.28665277 0.2248118 -0.14552216 -0.25929102 0.56060153 0.12940216 -0.25577983 -0.39592493 0.486538 0.08784509 -0.08070794 -0.47443238 -0.2355351 -0.076176085 -0.41971776 -0.35500544 0.36164156 0.4318661 0.01680402 -0.62577355 -0.06259317 -0.08478425 -0.5126653 0.18232682 0.30152878 -0.13157672 0.18871693 -0.2599319 0.10412563 -0.13773793 0.51707417 0.05531713 -0.11740747 -0.39380297 0.1786511 -0.21122037 0.13473266 -0.7854485 -0.031995554 -0.3193037 0.46519232 -0.09683508 0.54473543 -0.25221387 -0.3868954 0.47399992 -0.4151983 0.24311559 -0.24475926 0.48440272 -0.39564645 -0.28817588 0.04690759 0.41818157 0.2899697 0.2841853 -0.1455751 0.36182493 0.009374585 0.0065369513 -0.317987 0.07336888 0.22385551 -0.09508862 0.32449332 -0.14039785 -0.3626051 0.33333823 0.07889527 0.013358527 0.23759954 -0.3387429 0.041571923 0.9379665 0.103718154 0.10488656 -0.26661605 -0.21514234 0.43355814 -0.5614752 -0.048973266 -0.36143976 0.8280263 -0.18670839 -0.4814966 -0.53495634 -0.52700824 -0.4953681 0.0898084 -0.29464445 0.09426478 -0.25549918 0.07024868 0.22253697 -0.04187829 -0.35182646 -0.0732959 0.0543724 -0.07326869 0.57496977 -0.2991148 -0.1481895 -0.09626997 0.15607147 -0.014204837 0.34784317 0.0622157 -0.207653 0.151303 0.57060456 0.13778022 0.104161315 -0.021495806 0.12848023 0.15500854 -0.15200235 0.050774757 -0.46659246 0.4911859 0.35230738 0.08660514 0.2579051 -0.19691308 0.06985061 0.056142025 0.025738921 0.1781282 0.43145046 0.11944984 0.009496198 0.3215548 0.16059212 0.21524903 -0.1377022 0.0030091957 -0.3573909 0.6300755 -0.08312876 -0.24387911
不正确 0.049465295 0.031002939 0.0006653072 -0.07783168 -0.08930657 0.021230612 0.117664166 -0.14767197 0.046182774 0.005523702 -0.04417831 0.051801924 0.049353354 0.057430655 -0.0840979 -0.09636065 0.0064561116 0.0008106833 0.032579936 0.014782022 0.026470684 -0.055754725 -0.029446611 -0.06346276 -0.04519525 0.08756123 0.097225524 0.12487089 -0.07809461 -0.009462511 0.052706283 -0.011203576 -0.02475019 0.048585046 0.0795479 -0.059649903 -0.01649213 0.02637331 0.0355531 0.009108553 -0.016005894 0.0046859765 0.011139027 -0.10572877 0.08631607 -0.050343387 -0.17032538 0.001616546 0.0125679625 -0.11007615 0.13150449 0.08074305 0.036618963 -0.09046935 -0.0038300653 -0.021874057 -0.02591553 0.052323867 -0.1510881 -0.014533506 0.16178443 -0.13065104 0.057106864 0.09038376 -0.05355325 -0.059126195 0.057334386 -0.018557984 0.0031469858 0.13496967 -0.07749866 -0.023711218 -0.024782015 0.0021056118 0.064904355 -0.1241051 0.08280682 0.010754373 0.006597879 -0.07646563 -0.027766585 -0.1527757 0.01898724 -0.0119973635 -0.039448403 -0.039712302 0.026833074 0.08817188 -0.04914725 -0.16399486 0.10597189 0.06323381 -0.11368709 -0.14291966 -0.061779942 -0.018638127 -0.11487836 -0.0018138846 0.08935469 -0.017208014 0.081972785 -0.01986917 -0.0030955302 -0.07181092 0.105538316 -0.10470514 0.017218728 -0.07064183 0.025852721 0.19466132 -0.039876398 -0.0019763561 -0.01886826 -0.013263177 -0.0044881916 -0.12856303 -0.017287446 0.05842607 0.072640866 -0.06577242 -0.13700508 0.026860196 -0.0078840265 -0.021336908 0.021680273 0.07399525 -0.008538346 0.12723951 0.037523087 0.0906769 -0.017645642 -0.015499022 -0.033710007 0.05600457 0.011309226 0.009724366 -0.026553936 -0.10324745 0.01007671 0.022009408 0.0541711 0.043736648 0.036583766 -0.0421293 -0.09794195 0.09216803 0.06789701 -0.008689945 0.023991192 0.042622756 -0.0005601939 0.055376202 0.039118465 0.024512347 0.00086381595 0.05997574 0.058296632 -0.006220151 0.021177055 -0.055080026 0.0099192485 -0.0116452435 -0.014854213 -0.021567108 -0.08152484 0.05342343 0.14997604 0.06658267 -0.013828223 0.08981573 0.10395831 -0.080034524 -0.07136091 -0.045680784 0.1319689 -0.13125446 0.01153246 -0.038197175 0.0063178823 -0.043278027 -0.07519649 -0.106416866 0.016761297 -0.16823016 0.06669192 -0.010503994 -0.019729324 0.09087003 -0.038235933 0.16377051 0.037864428 0.01051246 0.027334422 -0.04750733 -0.05417941 -0.04438515 0.044709533 -0.110487044 -0.12643768 -0.058213905 -0.03368051 0.09421149 0.012156133 0.029021738 -0.15025719 -0.009820595 0.044890657 0.081624605 0.059519228 -0.096098766 0.11662948 -0.061633013 -0.007270141 -0.06928257 0.048129484 0.00085318455 -0.102679595 -0.05094303 0.050056223 -0.11697761 -0.14308701 -0.02516796 -0.032645155 0.07513819 0.026331149 0.06218755 0.05266912 -0.06439577 -0.018955735 0.011677391 0.06127858 0.038189314 -0.12460198 0.01197477 -0.00013894384 0.03421342 0.054804485 -0.123433866 -0.086736605 0.036300994 0.02098332 0.08047207 -0.019177968 0.027623976 -0.06703676 0.033878602 -0.011811536 -0.054566436 -0.11036409 -0.09378857 -0.009549337 -0.08812204 -0.081341654 -0.046841435 -0.030694483 -0.016538044 -0.028750826 -0.07897091 0.10615441 -0.052138176 0.110488884 0.07353719 -0.026979959 0.01151826 0.075715154 0.05273893 0.027938021 0.08247839 -0.013916429 0.07664736 0.022820348 0.11234731 0.018594109 -0.072177924 0.07683352 0.08282137 0.0031005214 -0.028207779 -0.048953567 -0.034134902 0.060780972 -0.084067374 -0.08269115 -0.15348886 0.13093972 0.026378406 -0.057807647 -0.03151276 0.006621808 -0.076108694 0.003943046 0.16815883 0.077579536 0.12785003 -0.025489964 -0.005944131 -0.07562959 0.03415054 -0.003835272 -0.07955217
液体 0.4843223 0.16680136 -0.43145892 -0.59548146 -0.3590688 -0.12076638 0.11152919 -0.6192983 -0.043119613 0.07897348 -0.069265604 0.36989024 0.015522277 -0.22200762 -0.16112049 -0.24927126 -0.10056735 -0.08646727 -0.15702423 0.31985605 -0.22941384 -0.031526644 -0.264343 -0.41668692 0.09658763 0.06346249 0.12010631 0.653428 -0.16914889 -0.2838055 -0.37778175 0.06314643 -0.21345443 0.52681184 0.33721426 -0.5041539 0.28498894 -0.11363294 0.107817195 0.23642226 -0.13999075 -0.09000554 -0.018250799 -0.4670163 0.016340535 -0.2539388 -0.6197458 -0.3644145 -0.22227666 0.29571792 0.31160223 -0.21793991 -0.03326045 -0.3094643 0.095082164 -0.11808028 -0.2349345 0.2665511 0.3973288 -0.030008014 0.15909791 -0.5161176 0.18949383 -0.24375495 -0.2151379 -0.12800679 0.11757652 0.14257471 -0.6803004 0.29134107 0.2949996 -0.11303318 -0.06616401 0.39294305 0.19687203 0.14444184 0.06808461 -0.06729517 -0.30526504 0.37119046 0.19237593 -0.526813 -0.16618012 0.46518597 -0.08227792 -0.4508416 0.18401223 0.045758914 -0.09482096 -0.3219379 0.45397094 -0.18234678 -0.17693968 -0.1463863 -0.11543688 0.093684405 -0.5445267 -0.08235991 0.84602886 0.063487865 0.23798952 0.2531302 0.0597503 -0.34751686 0.39471185 0.27317888 0.2700677 -0.2644004 0.07678566 1.327562 0.5657597 -0.2003517 0.027692186 -0.23136969 -0.21015653 -0.083823055 0.11997367 0.3796429 -0.120360225 -0.2865222 -0.38098088 0.27229562 -0.25019184 0.2638636 -0.041086525 -0.36589536 0.14124274 0.57302076 0.3900002 0.20954005 -0.31724414 0.4108932 0.11543769 0.25207952 -0.101893164 -0.2159144 -0.21502164 0.066806614 0.38901377 -0.09087588 0.06428505 -0.028036466 0.21034841 -0.24469979 0.20120065 0.31764078 -0.06655342 -0.25990185 -0.0754162 -0.27819225 0.24811937 0.5588064 -0.06680507 -0.47215816 -0.1159572 -0.1952827 0.12327567 -0.22521968 0.22736044 -0.14474274 0.23210806 -0.10224595 -0.31454718 -0.16007517 0.060501926 0.7694522 0.39920008 -0.06919618 -0.2532382 0.40966067 0.33976218 0.035387967 0.17593166 -0.10069471 0.41226563 -0.6252118 0.0151791535 0.30147448 0.06982697 -0.364463 0.22908139 -0.03561916 -0.009938727 -0.5987356 0.01942269 0.15576945 0.10775009 0.24315007 0.1059479 0.26861823 0.47854522 0.09612702 0.039617307 -0.059070405 -0.61839527 0.031676035 0.505314 -0.2517419 -0.58777416 -0.6605432 -0.18872239 0.336711 -0.030921858 -0.039748795 -0.42476064 -0.16650382 0.4752333 -0.12006869 0.3802536 -0.2394633 0.24344878 -0.11434052 -0.2143547 -0.18919039 0.30053073 0.22569042 -1.1203911 -0.21927136 0.016007928 -0.061781112 -0.06209637 0.01203214 -0.45217988 -0.0440452 0.27138022 -0.14652377 0.020731278 0.2981653 0.2725703 0.053685468 0.21996848 -0.08092522 -0.64242685 0.06418393 0.07428071 0.35030606 -0.18243124 -0.57341415 -0.050289813 0.35202459 -0.03980887 -0.14973192 -0.22646824 0.3573958 -0.108654745 0.15942581 0.01749154 -0.46834028 -0.21854945 -0.2460557 -0.16651964 0.06255298 -0.1575621 0.0038792745 -0.32549813 0.026840426 -0.22505724 0.054108843 0.40460974 -0.14376396 0.5804257 -0.1391478 -0.31299603 -0.37662166 0.24222827 -0.12418277 0.020467442 0.14616016 -0.17902425 0.2055758 0.260331 0.20034835 0.27605936 -0.05528909 0.102136604 -0.20027573 0.16947502 0.31732476 -0.5223091 -0.24865869 0.4823122 -0.46944472 0.36022636 -0.21855138 0.23312718 -0.07759228 -0.04637584 -0.35930207 -0.17418212 -0.24789996 -0.10124448 0.25346205 -0.27371687 0.22162497 -0.35443476 -0.142983 0.40209854 0.35120776 -0.14478539 -0.26895842
下沉 -2.1010113e-05 -0.21321434 0.108747244 -0.35837227 0.0687621 -0.14658163 0.12630296 -0.07454781 0.1888051 0.3504112 -0.015565572 0.2042211 0.33659208 0.43859658 0.42506948 -0.18837713 0.23705162 -0.25998136 -0.09323069 0.74516344 0.51999336 -0.20402507 -0.08929246 0.36380386 -0.033663377 0.07668773 0.30872282 0.5603885 0.26327893 0.22427839 -0.33928192 0.08184016 -0.03134916 0.2862858 -0.08746187 0.2598658 0.41065568 0.1919724 -0.26556176 -0.20040296 0.3201661 0.14104353 0.30193245 -0.05404837 -0.095570266 0.12494868 -0.7761696 -0.668848 0.21697342 -0.22212808 0.1868167 -0.049725488 -0.22993605 0.34098163 -0.10966787 -0.06599447 0.08153985 0.3059811 -0.017062036 0.39361924 0.44021106 -0.70847726 0.7671697 0.32603058 0.35959372 -0.5433729 0.22543071 -0.07119966 0.40986618 -0.29679108 0.13969824 -0.19013302 -0.010203812 0.2763325 0.0011384021 -0.14370102 0.050266627 0.07547862 -0.45812318 0.4031179 -0.6010765 -0.11772857 0.19676097 0.22418906 -0.080133505 -0.16574143 -0.016196018 -0.41815788 0.13408823 -0.5055646 -0.29515582 -0.069772355 -0.20877828 -0.3136452 -0.14302862 0.30792496 -0.3281797 -0.08439584 0.60650074 0.20014532 0.38390297 -0.15334126 0.15452282 -0.32265222 0.3730189 -0.30898574 -0.17668518 -0.2922744 0.44481835 0.49128148 -0.09635532 0.16001941 0.2708498 0.16971257 0.024522332 -0.17838772 0.050337333 0.106871136 0.5989151 0.11437996 0.22218908 0.5738201 0.26013732 -0.28390294 -0.14719002 -0.05965714 -0.30230272 -0.56501377 0.11812799 0.2746063 -0.3087665 0.5954674 -0.14451262 0.11851017 0.6034875 0.13029912 -0.17814295 -0.0003722132 0.2759905 -0.08487075 -0.16500898 0.069444 0.37882006 -0.1903945 0.36686456 -0.10369597 0.66298777 0.21158968 -0.23270594 0.041548107 0.31424844 -0.32213414 0.15898283 0.23863418 0.4240294 -0.28686115 -0.2608282 0.066665426 -0.0043527745 -0.03339072 -0.5021011 0.10200319 -0.24223632 0.07112504 -0.3429863 0.40370294 0.20787744 0.16175838 0.022866327 -0.22955853 0.10896874 -0.6051442 -0.27105346 0.06944899 0.45236874 -0.24654531 -0.3439852 0.46442223 0.16384843 0.068767436 0.19685754 0.056080997 0.66681486 -0.79217154 -0.030417653 0.0030357963 0.31054828 0.6680381 -0.2791205 0.3844503 0.2320611 0.10983497 0.14084104 -0.22460371 0.04388037 -0.04671523 -0.08687382 0.5647498 -0.5283111 -0.19252697 -0.17361155 0.7588433 -0.082974255 0.29123953 -0.0028983536 -0.17291842 0.2090667 0.11252833 -0.04659939 -0.3939377 0.2456418 -0.5063449 -0.19663206 0.08524899 0.23827644 0.32377905 0.015135138 -0.25825608 -0.13205034 -0.34466147 0.035915423 -0.07779715 0.020753097 0.22824083 0.4470834 0.06310549 0.031119838 0.17167436 0.00045450364 -0.53094685 0.37095392 0.24729015 -0.22988851 -0.035164904 0.62727517 0.1568869 -0.12186511 -0.29390627 -0.53296125 0.09016406 0.114192165 0.3639098 -0.7085959 0.47999585 0.15570866 -0.5144574 -0.16618614 -0.46078455 -0.42732522 -0.37721276 0.30579263 -0.49540552 -0.30400884 0.12282939 0.2599488 -0.3972344 -0.24704021 0.20815054 -0.052342623 0.118935555 0.5158996 0.8523495 -0.28909197 0.024895899 0.2512332 -0.5471683 0.642254 0.08431191 -0.12983634 -0.1644545 0.66593564 -0.04750906 0.20208687 -0.13313217 -0.06182554 0.1918464 0.19620587 -0.58772826 0.011900544 0.09166375 0.4070668 0.13327639 -0.032304958 -0.32899407 0.69548523 0.22683153 0.025909115 0.039886486 0.38850987 0.34978676 -0.09601196 0.1493673 0.10462383 0.34645557 -0.07069328 0.07819985 -0.17116617 0.6490192 -0.14457725 0.0022952647
在 -0.1122296 -0.03884134 0.109345 -0.17749754 -0.013829803 0.19751723 0.021958774 -0.07430039 -0.1685184 0.015597851 -0.0075716064 0.3067196 0.33405086 0.31642798 -0.01937547 -0.10396231 -0.071131624 0.3954502 -0.25598156 0.31701657 0.3518485 -0.43148613 -0.14565131 -0.04489732 -0.12157519 0.60170066 0.38116756 0.5670412 0.025309706 -0.061218105 -0.03817153 -0.018575016 -0.14515966 -0.23168108 -0.03346067 0.19015029 -0.04674912 0.13167264 0.13880809 -0.10422903 0.2029832 -0.11391253 -0.064892784 -0.29599208 -0.025377087 -0.04827171 -0.17860924 -0.06256149 -0.0207131 -0.20923209 0.25559843 -0.03524632 -0.16263403 -0.1027766 0.19009474 0.11088292 0.02072881 0.23495017 -0.22362658 0.11830352 -0.048231505 -0.1523652 0.11083974 0.116580755 0.13002113 -0.09731876 0.06481578 -0.050356213 -0.02976834 0.13336942 -0.2005614 -0.09341605 0.07853149 -0.22055484 -0.20742515 -0.07691603 0.14728692 0.21387275 0.024234092 0.2320459 -0.3003111 -0.13700463 -0.0054524112 0.08462043 -0.36750692 0.21081008 0.12605196 -0.1334757 -0.055419948 -0.35715666 0.14489537 0.019390153 -0.13152309 -0.3361535 0.024224052 0.0843826 -0.44083232 -0.36111784 0.05086288 0.0462748 0.038501117 0.039734848 -0.35156545 -0.39600655 0.09204983 -0.21137315 0.015088256 -0.038845077 0.042840168 0.3350305 -0.40459242 0.12575059 -0.2642711 -0.15717347 -0.23329906 -0.14621352 -0.21871334 0.021567073 -0.042339604 -0.20743354 -0.38059658 0.36942193 0.09629924 -0.2921612 -0.114792995 -0.03271094 -0.021069871 0.003105739 -0.030580604 0.25453386 0.0693681 -0.0032566849 -0.13870017 -0.05833185 0.31707984 0.3356743 -0.07444352 -0.26688644 0.11467884 0.02328508 0.18501046 -0.3603693 -0.17322387 0.19573225 -0.33331355 0.29497632 0.18043187 -0.11247484 -0.12263373 0.29602772 0.13928227 -0.21067847 -0.06384834 0.23624587 0.00078283 0.029410688 0.052471388 -0.031484306 -0.19932857 -0.11385325 -0.351116 0.019034907 -0.2316766 0.15096526 -0.44958416 0.12225042 0.08242671 0.39795256 0.075057276 0.16087937 0.18308127 -0.31419623 -0.09731351 -0.015477999 0.4011859 -0.4480768 0.0070099286 0.17058986 -0.23901498 0.039973866 -0.01765552 -0.009338756 -0.2678099 -0.26224044 -0.050795365 0.032367617 -0.23266686 0.15549362 -0.07936112 0.54090387 -0.18577331 -0.017741462 0.4722347 -0.13332112 -0.12177671 -0.15583462 -0.16615966 0.08077981 -0.32709587 -0.062532134 -0.07232335 0.41940084 -0.2649592 0.07309274 0.014009861 -0.214271 0.19214469 0.028489964 0.26267117 -0.19501744 0.3209163 -0.038738865 0.0041960217 -0.14993578 0.082577355 -0.15630902 -0.22988373 -0.19728765 0.46925938 -0.3865772 -0.18703496 -0.18302158 -0.16337144 0.23424813 0.070025 0.19323596 0.19907643 -0.25373948 -0.071063705 -0.1646629 -0.01868749 -0.052555893 -0.37867144 0.05354878 0.08712264 0.017335214 0.03244186 -0.23893139 -0.2862334 -0.15007158 0.10381871 0.42574564 -0.107971884 0.3043141 -0.30156553 0.03685971 -0.34990838 -0.2053542 -0.16633125 -0.116425596 0.3147068 -0.46571302 -0.16290237 -0.13290548 0.21220718 -0.112155296 -0.13438722 -0.16660872 0.24634695 -0.2760904 0.34312928 0.08651597 0.09675939 0.03870189 0.24651667 0.06849572 0.33142874 0.083887324 0.26660037 0.14334705 0.15428524 0.092668295 -0.6010115 -0.40588844 0.09571419 0.43938026 0.039915416 -0.26332223 -0.028802715 0.043466616 -0.03375438 -0.028724216 -0.1540029 -0.3513623 0.12346439 0.03614552 -0.085462905 0.01826619 -0.22080119 -0.322547 0.008545239 0.2848721 0.4042662 0.21721733 -0.028128043 0.12259163 -0.3232393 0.10656357 -0.016546315 -0.31967792
也 -0.046874262 0.3972685 0.11927463 -0.1411176 -0.009347809 0.024972772 0.24537408 -5.7297497e-05 -0.17678057 0.22146197 -0.20849313 0.09713585 0.3553236 0.19496295 0.017138503 -0.23732083 0.02459529 0.16496882 -0.047839306 0.06767115 0.29136783 -0.09026508 -0.027508637 -0.23832473 -0.2376395 0.28964657 0.11034253 0.15987836 -0.059301633 0.16237524 0.19973713 -0.025217706 -0.17307255 0.286573 0.08602858 0.105537474 0.0051275166 -0.16191925 0.03864316 0.314555 0.16039033 -0.02457768 -0.055266775 -0.14784783 0.20619743 0.08959026 -0.21961015 0.099631056 0.013640759 -0.18598005 0.35515442 0.28120404 0.05663599 -0.052546542 -0.22627157 -0.31507033 -0.05911238 0.2323301 -0.4442484 0.053834595 0.12413013 0.12898913 0.044808164 0.2524785 -0.2715476 0.032943178 0.067380905 -0.13160802 -0.010156063 -0.14963445 -0.085910946 0.028845005 0.091955155 -0.10987157 0.21065359 -0.31361505 0.272256 -0.07367033 0.052750926 -0.06254592 -0.032101188 -0.23826107 0.118709914 0.11033018 -0.06741994 0.007107059 0.14053941 0.45399967 -0.25382134 -0.43434927 0.031137008 -0.022288313 -0.39157793 -0.10444529 0.09750444 -0.18074206 -0.3235354 -0.05253002 0.1737884 -0.1319464 0.0748198 -0.23478341 -0.10535959 -0.31696498 0.2769604 -0.2741739 0.41696268 -0.28167585 0.041934814 0.5007788 -0.014076221 0.2038555 -0.22350845 -0.09547798 0.06377373 -0.32374546 0.18849826 0.19484764 -0.018630046 -0.1453941 -0.21517622 0.08301596 0.03334574 -0.1481322 0.15084954 -0.06759395 0.1409924 0.42402157 0.27965662 0.4070651 -0.17192902 0.033904947 -0.3344553 0.31859764 0.21760347 0.01217347 0.032210913 -0.14801668 -0.091967724 -0.2044852 0.1296753 0.07188836 0.08674643 -0.17634852 -0.026114933 0.14645687 0.13975535 0.013607338 0.10524298 0.23500916 0.05172823 0.29064032 -0.05759996 0.27601033 0.12094871 -0.023396421 0.18227541 0.10892474 0.2746456 0.12950312 -0.100469425 -0.059290335 -0.056557953 -0.09400447 -0.23661606 -0.023355141 0.36944386 0.28925776 -0.1390503 0.14265573 0.11123876 -0.15893771 -0.23100527 0.011732164 0.32338193 -0.13299352 -0.062706284 -0.14642198 -0.09521834 -0.0056178602 -0.28954402 -0.086160965 -0.09658055 -0.3129017 0.288504 -0.3011632 -0.37606448 0.19044672 -0.30282632 0.3803736 0.10945979 -0.036395006 0.15805513 -0.23370865 0.0777931 -0.13486676 -0.17015952 -0.11768768 -0.14694953 0.04000038 -0.16032766 0.1628123 0.02171513 0.024638195 0.019516028 -0.11522285 0.19010106 0.21180922 0.27746305 -0.23896807 0.121670194 -0.008813371 -0.033018216 -0.20707446 0.051552415 0.0681895 -0.12626259 -0.28249168 0.31799453 -0.120205685 -0.3765118 -0.05043306 0.01262584 0.17634635 -0.007389339 0.14879818 0.13673633 -0.08650661 -0.20298502 0.048483253 0.039157778 0.24266101 -0.12854552 0.056194905 0.038306426 -0.0050306274 0.30412215 -0.2587032 -0.22805831 0.010779774 -0.17477217 0.24627055 0.0015658927 0.1396542 -0.38211933 0.109330006 -0.20455585 -0.044438135 -0.22222383 -0.084895864 -0.04804647 -0.25231192 -0.14084646 -0.09029268 0.027897097 -0.09368978 0.096169904 -0.15128624 0.20938547 -0.08571602 0.060134105 0.1112403 -0.14350961 -0.013404542 0.13039358 0.21706495 0.13791786 -0.014068298 0.06483487 0.1455071 0.20469871 0.27873895 -0.15816027 -0.2521361 0.13231736 0.14908624 -0.10940142 -0.0669451 -0.008574247 -0.19256942 0.10843164 -0.30007148 0.05464823 -0.33117387 0.29494002 0.014873953 -0.08462855 0.048718236 0.33981547 -0.3661747 0.15859278 0.3152142 0.054176778 0.30558985 0.117725246 0.14117795 -0.1717396 0.122942895 -0.030646754 -0.20796788
当 -0.13205673 -0.11912662 0.17622069 -0.2661236 0.030955367 0.14616843 -0.015160527 -0.0276912 -0.32310823 0.14411025 0.024634035 0.08220032 0.15454483 0.13091473 0.027261699 -0.12975559 0.14551467 0.24012372 0.003576035 0.14800617 0.26209295 -0.26254967 -0.038010802 0.07273693 -0.17096652 0.28227633 0.21141441 0.41795775 0.27909547 0.1224644 0.14980932 -0.07023878 -0.011788488 0.0939618 0.0761231 0.12035674 0.02015977 -0.28932714 0.28872046 -0.034168232 0.3706469 0.052868463 -0.025104932 0.017049367 -0.05203469 -0.0016185875 -0.22108297 0.030577214 0.23893008 -0.24372968 0.33508742 -0.012930769 0.12581743 0.24549651 -0.13865118 -0.33282867 0.10100967 -0.06864639 -0.0727963 0.1270256 0.085912876 -0.24198648 0.23415795 0.12070535 -0.14238124 -0.05493686 -0.12303673 -0.23071189 -0.31163436 -0.059443127 0.021841887 -0.07437332 0.30388436 -0.029292736 -0.1347154 -0.049130186 0.31186876 -0.15343916 0.011706619 -0.319747 -0.47382358 -0.07839218 -0.001389393 -0.089735955 -0.17593074 0.11493015 0.07058874 0.08657103 0.30247658 -0.3740273 -0.08603957 -0.0052436423 -0.124648325 -0.34025395 0.060413454 -0.15612073 -0.42301276 -0.451463 0.28172472 0.15440646 -0.01600712 -0.12859845 0.1477292 -0.21783659 0.56660354 -0.24195497 -0.222247 -0.4529145 -0.033100415 0.022134913 0.039569862 0.19687939 -0.19445339 -0.13849522 0.044021748 -0.19836812 -0.05142178 -0.15554436 -0.0075080125 -0.33463672 -0.2674216 -0.034610655 -0.02999429 -0.14288394 0.061771702 -0.14367048 -0.00569905 -0.074419305 0.20933188 -0.0015097782 -0.1819752 -0.04199994 -0.21062966 0.07256939 0.36766544 0.1374463 0.06845432 -0.06921747 0.010425096 -0.26378426 -0.13976382 -0.33245924 -0.068362765 0.32379746 -0.40163016 -0.022153853 0.20061003 -0.3001321 -0.25517622 0.15701361 -0.13859023 -0.015734425 0.037475146 0.18413635 -0.05706895 0.015451321 -0.010072317 0.27031976 0.11702616 -0.0690232 -0.19497414 -0.03071107 0.030882759 0.0874925 -0.49382576 0.073897645 0.29919124 -0.17040642 -0.076670036 0.07437991 -0.021626122 -0.19560446 -0.43791535 -0.14140987 0.44016537 -0.15444155 -0.29553518 -0.13856474 0.2608956 -0.17893906 -0.07200043 -0.20524104 0.11248677 -0.12090874 0.2301439 0.45283723 -0.038599603 0.32605842 -0.3207521 0.46727774 -0.12918851 0.26920566 0.1668165 0.094830364 -0.28261173 0.08615978 -0.086124405 -0.055982023 -0.6599469 0.062270854 -0.12286864 0.2982415 -0.13069408 -0.15954871 0.21343781 -0.16454804 0.30464953 -0.0004966397 -0.050361402 -0.25347018 0.33690965 -0.23077267 -0.37063074 -0.20569144 0.0440868 0.17119619 -0.25014004 -0.093739286 0.22457682 -0.19940713 -0.20099622 -0.28744683 0.064588726 0.29550347 -0.07230105 -0.19251566 0.03452886 0.067456104 0.0061179698 -0.30308738 0.12898712 0.31571347 0.0957795 0.0469713 0.3294292 0.15765041 0.13478191 0.08664399 -0.1665787 0.011958175 -0.20296912 0.193586 -0.2106897 0.23730302 -0.29080993 0.079067014 -0.21324335 -0.08057245 -0.11906359 -0.1686401 -0.03492627 -0.26017964 -0.3264634 0.12694716 0.03013637 0.07189778 -0.1852771 -0.007336549 0.32946098 -0.06236954 0.22728187 0.059914466 -0.25142932 0.21915083 0.13347964 -0.032668576 0.26808506 0.29145023 -0.14091633 -0.087770194 0.21926937 0.10746105 -0.112108774 -0.03950514 0.05350589 0.23630972 -0.11826486 -0.13991575 -0.087125786 -0.088151924 -0.023073062 0.22383632 -0.2138794 -0.18393904 0.12308241 0.1325953 -0.036875844 0.057350006 -0.009035863 -0.0732065 0.07271012 0.5290173 0.20034096 0.31699365 -0.4139632 -0.07108327 -0.053526536 0.19197227 0.028978016 -0.2218819
与 0.18644765 0.14632924 -0.10189235 -0.1762805 -0.13293983 0.09378338 0.3402593 -0.4251087 0.32992926 -0.042983275 0.075185955 -0.087310225 0.0074716276 -0.037598327 -0.5034851 -0.326132 -0.0042972546 0.26331413 -0.37784144 0.22512557 -0.11308636 -0.119523466 0.09381452 -0.16723154 -0.12249697 0.35025075 0.42440167 0.078761086 -0.14435163 -0.09022784 0.3593435 -0.29122716 0.07154355 0.077561855 -0.06314387 0.007188051 -0.35199562 -0.14335664 0.28353444 0.1815522 0.22410782 -0.0097667985 0.07234905 -0.26302415 0.05762828 0.012166785 -0.07388882 -0.2663627 0.118598185 -0.27498406 0.5360205 0.059952483 -0.015738908 -0.41164654 -0.1149301 -0.3627391 -0.1207373 -0.21312292 -0.44771698 0.009523024 0.34307516 -0.27252483 -0.05819156 0.08619119 -0.1441462 -0.20871833 0.05166489 -0.3379366 -0.011158081 0.42864612 -0.18347628 0.022130921 0.006099583 -0.018140776 0.27832842 -0.22144711 0.07350372 -0.24756102 -0.17161188 -0.3035379 0.04874821 -0.031510632 -0.06103007 -0.08469367 0.03185833 -0.20298417 -0.015883338 0.12192887 -0.013844046 -0.1439915 0.16078778 -0.020241102 -0.0462911 -0.49897397 0.0719463 -0.034558263 -0.21249132 -0.45472273 0.08111116 0.0123000005 0.16965912 0.19525754 -0.09564748 0.067625225 0.3923294 -0.443203 0.030322935 -0.25134483 -0.14825052 0.36497283 -0.30287376 -0.14286312 -0.115401365 0.10808745 -0.07744932 -0.4742419 -0.22220607 -0.123726815 0.29001132 -0.05114399 -0.08204333 0.07125561 -0.2416348 7.219758e-05 -0.135199 0.079251885 -0.044062074 0.061276395 0.10959146 0.19583662 0.028016398 0.008287983 0.025207197 0.093094036 -0.12724502 -0.18774879 0.11841237 -0.20662569 -0.015710782 -0.25922436 0.21422414 -0.19685148 -0.31879902 -0.13692088 -0.5297449 0.5021174 0.28987482 -0.20973621 -0.10620743 0.29757515 0.15075362 0.20463221 -0.18804897 -0.18972191 -0.19179516 0.110941604 -0.078205414 -0.35812598 0.19797723 -0.097099304 -0.19111133 0.26401398 -0.3508076 0.26028502 -0.45459577 -0.0048468825 0.058103394 0.10788322 0.02875705 0.31037536 0.44851807 -0.063786015 -0.09605759 -0.17466967 0.28516203 -0.4845089 -0.10146133 0.09153266 -0.043952864 -0.24304321 0.026451906 -0.51525855 -0.31312743 -0.23634575 0.3477503 0.072475895 0.2558269 0.1053317 -0.33255497 0.18146141 0.25032157 0.42157462 -0.09105101 -0.083817594 -0.063250534 -0.094290964 0.07682159 0.069354594 0.022902396 -0.015136036 -0.03457666 0.4307878 0.022150561 0.3817061 -0.2117969 -0.3237265 0.17280406 0.22376974 0.6119751 -0.26455492 -0.054020315 -0.012527499 -0.116872266 -0.58362836 0.1952469 0.025608784 0.01617265 -0.19694294 0.05893185 -0.17930956 -0.25495166 -0.10449394 -0.08156618 0.29697028 0.012565952 0.32624245 -0.04414441 -0.38264856 0.055596966 -0.04125448 0.2343086 -0.18343659 -0.3990116 -0.21083768 -0.38982767 0.21600707 0.18469356 -0.50680816 0.04196124 -0.20222874 -0.07492629 0.8967878 -0.017108534 0.15543036 -0.3222212 0.06989767 -0.1518957 -0.14313403 0.24964397 -0.16257982 -0.0017826043 -0.06642634 -0.09756212 -0.24452475 0.037492476 0.061949354 -0.23870052 0.05814516 0.17189541 -0.5572783 -0.095543586 0.30476233 0.12146029 0.12688877 -0.047466286 0.23178658 0.015501 0.15723814 -0.24963671 0.14535086 -0.12044171 0.47107616 -0.32259315 -0.03690236 -0.02901079 0.33840665 -0.115798116 0.16353987 -0.20309685 -0.009977702 0.07176588 -0.0039587845 -0.12751858 -0.10681909 0.35621887 0.00047973948 0.102243766 0.1749418 -0.09768186 -0.37992823 -0.26153237 0.32410362 0.25342557 0.29224473 -0.24622518 0.069031745 -0.4197844 0.011781147 0.083365165 0.05210176
大于 -0.097675435 -0.087606706 -0.046997644 -0.18485478 0.23702772 0.21214831 0.35043162 -0.35214204 0.3923785 -0.45026278 0.18496509 -0.30767742 -0.12830594 -0.21375649 -0.28750414 -0.23668742 -0.004357897 -0.026027925 -0.27252066 -0.18542238 0.3539218 -0.64428693 0.14893144 -0.43646947 -0.08979166 0.39076266 0.15186332 0.24794234 -0.04859244 -0.39915606 0.25234395 0.29785228 -0.19386324 0.32147822 -0.16329345 0.23711598 -0.14309579 -0.106483504 0.04366962 -0.062364146 0.20652153 0.34952712 0.30315915 -0.53058946 -0.1608064 -0.37689525 -0.599959 0.4012579 0.059598677 -0.34983715 0.13688913 -0.10751104 0.24046046 0.014358836 0.07122472 0.3578855 0.06357837 -0.04808473 -0.10245561 -0.16989164 0.45752925 -0.5075069 0.50924605 0.21969087 0.1846606 -0.09604769 -0.34126797 -0.10022142 -0.017388524 0.08465183 0.44222412 -0.39462474 0.04962833 0.23452201 0.18388267 -0.3168092 -0.09087405 0.19920723 -0.024478754 -0.5989953 -0.5512446 -0.48360965 0.010077182 -0.03024453 -0.046267677 -0.058197107 -0.13965204 0.31800637 -0.15549044 -0.07237667 0.32063085 0.36529544 -0.76740766 -0.26376742 -0.20344138 0.31318185 -0.34927678 -0.23760565 0.262101 0.17355192 0.19875425 -0.36660084 0.032776628 -0.40950543 0.36888972 -0.15707907 -0.21072309 -0.3533883 0.0029176166 0.23648503 0.012049337 0.19625427 0.11090703 0.17462024 0.15632652 -1.0205946 -0.5991944 0.17634137 0.5261811 0.09690827 0.091190614 -0.2252711 0.29953232 -0.11107174 0.016837077 -0.3025143 0.18242267 -0.49491298 0.014715343 -0.2739137 0.26063362 -0.3108518 0.20755486 0.11774063 0.22135456 0.02390253 -0.07818789 0.21164884 -0.09732411 -0.13982657 -0.36880618 -0.13794471 0.09345227 0.046516903 -0.29925102 -0.07413705 0.6897495 -0.5843134 0.00349569 0.12402237 -0.17840083 0.28362793 0.2269934 0.32056314 -0.054693382 -0.124915235 0.4967812 0.20945871 0.2504165 0.11017931 0.16926974 -0.09458531 -0.38264602 0.26766393 0.15751542 0.1483153 -0.04619113 0.057170637 -0.11211433 0.6542781 0.38070327 -0.26916504 -0.41232544 0.13236432 0.34390336 -0.35120332 -0.25040725 0.32742217 0.22461924 -0.3502182 -0.48996338 -0.30932635 0.16623494 -0.5078153 0.2129764 -0.045788802 0.0022138897 -0.27097982 0.069797754 0.5838045 -0.15340412 0.4366145 0.28614208 0.31976813 0.12729838 0.25537333 -0.015738906 -0.27205062 -0.5782501 0.19694966 -0.17191456 0.5019499 -0.1980686 0.13164283 -0.120507084 -0.2780625 0.30924046 0.38913855 0.2937163 -0.10116541 0.42694238 -0.16886774 -0.3570341 0.01314143 0.2669253 -0.044258997 0.14860502 0.10621295 -0.02748554 -0.5253482 0.24180882 -0.19976771 0.0065145195 0.13094686 0.3866389 0.11320233 0.14442809 -0.07457249 0.08358649 -0.29968247 0.6059437 -0.2544733 0.2880348 0.2763814 0.48948166 0.2322443 -0.18353845 0.22404689 -0.25230172 -0.16270736 -0.19324985 -0.13573825 -0.15021035 0.32905638 -0.19087163 0.07916631 0.1648292 -0.17938365 -0.091258556 0.09398125 -0.24036933 -0.5354235 -0.48799774 -0.1748176 0.24306 0.15951647 -0.054340977 -0.069801785 0.13284916 -0.10531237 0.20247261 0.15392761 -0.04701613 -0.35975596 0.7969405 -0.2960835 -0.08813483 0.53453153 -0.3640479 -0.07273672 0.09256268 -0.35474133 -0.045597292 -0.34842822 0.42393205 0.16226704 0.59937066 -0.20386723 -0.2183085 -0.29047585 0.08175847 0.257991 -0.1434181 -0.43252692 0.48974308 0.43126956 0.09288924 -0.21077292 0.060583815 0.3039014 -0.29025072 0.6854289 -0.021915015 -0.06086249 -0.43932948 -0.08157821 -0.007174836 -0.12118547 0.09445654 -0.64545894
水箱 0.05792894 0.22620802 0.38392246 -0.6241601 -0.3619177 0.34346053 0.20131283 0.15187614 -0.7435176 0.2211209 -0.022168756 0.2243372 0.4226703 -0.33991304 0.04774275 -0.1787685 -0.43145108 -0.07728512 0.018435176 0.21582416 0.4675178 -0.28134102 -0.18870348 -0.0029580758 -0.09242347 0.052417926 0.54012567 0.8843902 0.116120905 0.32105085 -0.2955966 -0.35085136 -0.29340884 -0.19402434 0.3440366 0.31790143 0.34404925 0.14597483 -0.08513618 -0.4104922 0.06337847 -0.24872561 -0.3611316 -0.062283646 -0.42950737 -0.03345408 0.11609003 -0.43031713 -0.25331065 -0.0058157053 -0.2967716 -0.00015430828 -0.040461384 0.065866545 0.31057048 -0.25705472 -0.004716558 0.22215916 -0.07381691 -0.3584744 -0.1931658 -0.5415708 0.5807989 0.09877237 0.38197494 -0.40477675 0.039035156 0.08114306 -0.175904 0.3732455 0.123517364 -0.70602673 -0.29440063 0.0070012542 0.20872368 -0.16229302 0.105295725 0.44661817 -0.025560027 -0.6166019 -0.41806778 -0.47027603 0.13691074 0.13894263 -0.5557098 -0.124147505 -0.35845685 -0.2170137 -0.12214616 -0.48654744 -0.009745305 -0.6525004 0.054492548 -0.77282065 -0.34443966 0.21908353 -0.4397306 -0.23090872 0.22780515 -0.10629688 0.04543256 0.23254003 0.067941844 -0.10891423 0.5025623 -0.084093764 0.016696831 0.75731826 0.06717492 0.21304587 0.76872575 0.8928899 -0.3683315 -0.53405595 -0.20112258 0.08183758 0.422258 0.22751711 -0.022202086 -0.60291725 -0.25046146 0.010999107 -0.21000585 -0.27375194 0.10856485 0.13140097 -0.21798277 -0.025673155 0.24140999 0.5021292 -0.26827654 0.54057884 -0.34446347 -0.06362373 -0.19858466 0.45200598 0.0082740225 0.3155555 -0.17744693 -0.26842648 -0.16537142 -0.5853804 0.6817673 0.29082486 -0.5044436 0.21103226 0.6619943 -0.27719882 0.18321781 -0.046120513 -0.046205737 -0.14745727 0.515491 -0.09192279 -0.25679535 -0.43603384 -0.22875975 -0.1400221 0.46733063 -0.38080576 -0.09034928 0.32745877 0.03733207 -0.15841801 -0.25113943 0.20046712 0.011429793 0.63828754 -0.6923148 0.45774952 0.74692315 -0.016934503 -0.31657696 -0.27967426 0.3503693 -0.7035184 -0.48544803 0.24510694 0.23488483 0.021574948 0.15295957 0.1749259 -0.16695312 -0.21056132 0.1476483 0.3674214 0.11322907 0.3327459 -0.06617032 0.90803224 -0.035771474 -0.14521144 -0.1502274 -0.28100407 -0.022787284 0.2982847 -0.10530328 0.08549218 -0.9647944 0.10002216 -0.10365628 0.41582623 -0.23380719 0.12354535 0.026348788 -0.3658085 0.27744076 -0.0983084 -0.07608762 0.21142557 0.889741 0.030205086 0.07961159 0.297548 0.48029178 0.07580262 0.034553356 -0.0062160636 -0.38828138 -0.20192648 0.13661863 0.092168786 -0.12702647 -0.006968193 0.24751827 -0.18240677 -0.44806963 0.33662745 -0.03913686 -0.43077138 0.107644714 0.04039432 0.04014044 -0.13905154 0.61963093 0.36104733 0.059280876 0.12030508 -0.34596315 -0.3790018 -0.2136795 0.48747864 -0.5936897 0.75573045 0.0878033 -0.041071255 0.38044417 -0.7821135 -0.31782115 0.26324514 -0.38792762 -0.28257972 -0.45605162 0.23704654 0.09362625 0.3779109 -0.13411061 -0.11614147 0.71284944 -0.54149497 0.14229055 -0.41377696 -0.2068162 0.4183349 0.09883718 -0.00912373 0.90671086 -0.45327774 0.06399255 -0.0073100454 -0.18878011 0.30341658 0.3003452 0.4987476 0.19312082 0.18711 0.03287522 -0.34481984 -0.34645435 -0.2719361 -0.21635057 0.072000526 -0.16979317 -0.14474137 0.1473815 0.0612999 -0.09657472 -0.04180434 -0.2029099 0.0039674775 -0.15362313 0.78956735 0.2859424 0.2904623 -0.68985474 -0.24560551 -0.053430077 0.34961367 0.23476447 0.064350314
无关 -0.05628746 -0.07932134 -0.02601677 0.006454023 0.17449345 0.15976381 0.5461613 -0.4719781 0.58584523 -0.35860422 -0.31967732 -0.022070136 0.15070659 0.47244728 -0.58980906 -0.20835437 0.10956492 0.088114545 -0.08999464 -0.36187586 -0.0019900722 -0.31339604 -0.08955158 0.034881044 -0.046875592 0.26670304 -0.079270616 0.41358417 -0.6032092 -0.389099 0.66743064 -0.26433665 -0.053545997 0.1897892 0.3172088 -0.04442198 -0.023141166 0.12026586 -0.109022036 -0.06536541 0.24465345 0.2349817 0.2916182 -0.39585528 0.09682605 -0.37517598 -0.34543616 -0.24457848 -0.055122748 -0.6864945 0.4875194 0.28574234 0.33930838 -0.24074239 0.10918877 0.00753634 -0.18868352 0.12810634 -0.8766939 -0.24600571 0.40241146 -0.6707042 -0.0723722 0.38913465 -0.33903837 -0.27859446 -0.13545659 -0.25382522 0.059331853 0.52042264 -0.2407531 -0.17761174 0.05019836 0.038013056 0.23028642 -0.19888297 0.5614967 -0.078432344 0.047431353 -0.8812891 -0.2303533 -0.6782517 -0.05187867 -0.2242391 -0.24487166 -0.48935062 -0.15182595 0.14403652 -0.3610993 -0.41128612 0.13214634 0.25590777 0.07152993 -0.3845248 -0.238874 -0.055111647 -0.2716073 -0.33175024 0.098553956 0.13423148 0.39007753 -0.2585924 0.18583916 -0.2896807 -0.056519732 -0.13788529 -0.16537754 -0.2214037 -0.27765656 0.1726821 -0.30201706 0.053199645 -0.0008521013 0.2855523 -0.02977236 -0.09186125 -0.2670232 0.014509171 0.39456344 -0.22066881 -0.18767485 0.5870185 -0.5112403 -0.023710914 -0.17032163 0.37595108 -0.3414301 0.19069856 0.08244556 0.093470484 -0.08741172 -0.2653833 -0.045268994 0.17291215 0.11644826 -0.053212292 -0.08902744 -0.22650163 -0.26649562 0.013877518 0.13082404 -0.018210351 -0.18164065 0.108239725 -0.12770483 0.38955882 -0.21547732 -0.19836219 0.12075021 0.036135215 -0.10214314 0.19457184 0.31076497 0.25292936 -0.08709806 0.295568 0.4039403 0.03122174 0.51247495 0.015282921 -0.060796726 -0.2723636 -0.34048367 -0.17608652 -0.14494981 0.38395092 0.14256686 0.112167984 0.04808962 0.076085806 0.6151176 0.14106096 -0.013574744 -0.2914279 0.18732342 -0.24364944 0.06888128 -0.31089577 0.27672562 0.36276776 -0.0032400643 -0.412869 0.20547536 0.0641536 0.09392913 -0.3301581 0.4767192 -0.1474912 -0.35281968 0.5015193 -0.10507798 0.25526464 -0.37702867 -0.3795955 -0.2484241 -0.06865406 -0.12588447 -0.7290096 -0.562799 -0.5889708 0.18758844 0.35833037 -0.17367311 -0.053433094 -0.19631752 -0.1675644 -0.108568504 0.37368217 0.46678954 0.16126327 -0.19555154 0.16117942 -0.029210817 -0.67218494 0.4365209 -0.12559281 -0.1173363 -0.10767889 -0.0938774 -0.3293456 -0.30390653 -0.080872744 0.14813977 0.53860044 0.06474972 0.17166196 -0.1880438 -0.13139789 0.49229828 0.21897629 0.22104299 0.084679335 -0.24390906 -0.050107043 -0.019683696 0.12114264 0.18527557 0.01446226 -0.089805245 -0.36668557 -0.1079215 0.36573377 -0.026541349 0.07196251 -0.17263581 0.23733142 -0.44395047 -0.15140314 -0.21033844 -0.3614621 0.39704883 -0.13089322 0.10275307 0.028226022 -0.30552134 -0.096031785 -0.009793099 0.041854873 0.30140987 0.034152456 0.56947273 -0.025686149 0.22031915 -0.19512981 0.14236628 -0.2748086 -0.09597397 0.45793086 0.036704008 0.3889027 0.17501454 0.7707559 -0.01990804 -0.49321574 -0.3008497 0.5604883 0.3813596 -0.021701794 -0.17163981 -0.095715374 0.2123155 -0.14661948 -0.6180509 -0.46158582 0.39206916 0.01958865 -0.12144852 -0.2020826 -0.41771513 -0.14615317 -0.27772212 0.53231853 0.19015945 0.32705593 -0.4262771 -0.19881535 0.012009392 0.29952574 0.4021541 -0.19360337
和 -0.0866008 0.13095653 0.077404015 -0.11507492 -0.22793335 -0.02899427 0.22701892 -0.2855828 0.27426723 -0.008412053 -0.10755729 -0.04166167 0.34984812 0.08458287 -0.37946308 -0.08710894 -0.039095223 0.2377531 -0.30480844 0.080133736 0.0027130845 -0.14934397 -0.13045014 -0.25570282 -0.23796843 0.16862243 0.37569878 0.29311836 -0.18116787 -0.13095872 0.29259643 -0.13400052 -0.27439135 6.2321094e-05 0.035019487 0.058367413 -0.29648516 0.043080572 0.16189034 0.18692397 -0.019458264 -0.10532329 0.073568895 -0.33075535 0.02963689 -0.03404438 -0.08229993 -0.34281307 -0.07807527 -0.13315825 0.2916915 0.025752239 -0.08209225 -0.13434649 -0.021360371 -0.35842514 -0.039740086 -0.044343967 -0.29028592 0.075830124 0.3198309 -0.14627613 -0.12942266 0.29650342 -0.091157205 -0.35605165 0.054203074 -0.012379697 0.009084202 0.06924028 -0.08478994 -0.162967 0.10638158 -0.0064074076 0.14462201 -0.25473407 -0.020228412 -0.057985693 -0.12898058 -0.20849712 -0.19118409 -0.23697597 0.102687284 0.09446524 -0.031185227 -0.1740588 -0.14215341 0.22874536 -0.14711262 -0.061028108 0.008970895 -0.15389016 -0.26776388 -0.33029398 -0.072487414 0.0025055395 -0.06471911 -0.45071277 -0.038110882 0.0055898177 0.22800243 0.01682397 0.05506893 -0.30437943 0.28005502 -0.19774279 -0.11192364 -0.04153841 -0.099196754 0.40559882 -0.25867528 -0.23381901 0.10222728 0.02366173 0.021296434 -0.17918979 -0.21737288 -0.09138698 0.19839494 -0.075328134 -0.18998227 0.05619431 -0.052572966 0.041076645 -0.1287951 -0.07612047 0.03877695 0.013952842 -0.012219843 0.24566388 0.23285191 -0.02654461 0.01122627 0.015240175 0.0724672 0.040433127 -0.079081506 0.105102435 -0.050096244 0.017701091 0.21430695 -0.23291302 -0.054295212 -0.09679265 -0.2319092 0.22365944 0.173969 0.0057436237 0.01792459 0.30177096 0.29806688 0.27518454 -0.15324667 -0.15482165 -0.2505056 0.15369806 0.11170201 0.0010833563 0.2544402 -0.21709251 -0.18629879 0.09570107 -0.32559183 0.046165023 -0.27622935 -0.05189127 0.34933686 0.36329287 -0.015949447 0.1100151 0.38509262 -0.075140595 0.027811315 -0.018935513 0.33593395 -0.31387568 0.023449063 0.05452136 0.02925301 -0.19778088 -0.044443205 -0.50000644 -0.017612632 -0.33097985 0.17759669 -0.063500434 -0.091857344 0.039699215 -0.25566944 0.070029266 0.08329646 0.018035222 0.18442357 -0.10231525 -0.2165452 -0.20538515 0.048795883 0.1617206 -0.00626608 0.06278265 -0.24523349 0.5108419 0.024371672 0.16657825 -0.19555815 -0.031279445 0.2861663 0.22228067 0.39788333 -0.2776766 0.18965396 -0.10946006 0.038531553 -0.33762845 0.08718303 -0.02036646 -0.12603989 -0.39228833 0.20286663 -0.20508619 -0.32626733 0.035747748 -0.061080024 0.122245826 -0.044446453 0.29146603 -0.10429818 -0.28089964 5.1315263e-05 0.1383238 0.28946987 0.0014253766 -0.31702915 -0.13355145 -0.062726334 0.114270605 0.11763807 -0.2510268 -0.26530153 0.09708951 -0.033182472 0.22795264 -0.062414877 0.014365411 -0.2530483 -0.05900854 -0.19516458 -0.009369743 0.1017688 -0.26324785 0.06032691 -0.33704576 0.051546667 0.046138506 0.02930124 0.097736195 -0.22410932 -0.25087368 0.25070873 -0.3433337 0.028804727 0.30373684 0.09082823 0.2610388 0.24619354 -0.047702502 0.023521584 -0.12278916 -0.1844623 0.100429334 0.104689375 0.26759395 -0.24019897 -0.070004635 0.05420373 0.22149092 -0.27343056 0.020066151 -0.04660823 -0.1477734 0.0529834 -0.09865326 -0.0100542465 -0.23006922 0.23797765 -0.023137238 0.022708038 -0.02291171 -0.027761068 -0.1631749 0.023602182 0.3918718 0.0043310574 0.094789475 -0.0876038 0.043653738 -0.4229595 0.04362057 -0.07147649 0.030200506
水中 -0.50098705 -0.09909818 -0.17494223 -0.31836483 0.48379302 -0.29031175 0.2369565 -0.6145206 -0.16625683 0.21816613 -0.39308202 0.25432616 -0.40413517 0.4518244 -0.10480164 -0.44748276 -0.046186 -0.06781755 0.053323098 0.9131477 -0.014901705 -0.3252698 0.14150135 0.017529389 -0.072287954 0.50334597 0.326361 0.5874317 0.11135709 0.26144412 -0.20562088 -0.10245755 -0.043109983 -0.079582565 0.31993982 0.35800093 0.1154132 0.3288283 -0.11190365 -0.098853156 -0.11300711 -0.007847256 -0.70079696 -0.12570077 0.22731574 0.044348583 -0.58097166 -0.061474767 -0.15663105 -0.4431307 0.42167675 -0.16144404 0.024735205 0.08296738 -0.013864306 -0.03538509 0.2291513 0.12722681 -0.0067554154 0.047766853 0.30349302 -0.59049845 0.47304323 0.4456271 0.23428968 -0.049866706 0.5261698 0.26499468 -0.36805296 0.13658366 -0.34831515 -0.15464891 0.12069227 -0.17482796 0.27274528 -0.19364865 0.21879064 0.2545314 0.20396559 0.28214344 0.22760631 -0.12959127 0.018900696 -0.15882958 0.66924334 -0.042958558 -0.08652362 -0.13972978 0.16285855 0.2130693 0.28624094 -0.19738851 0.22370757 -0.53200245 -0.31599835 0.0528617 -0.30044636 0.019244583 0.2578142 0.22645344 0.32679406 0.24508196 0.4397788 -0.22381066 -0.18698992 0.15384233 0.070422694 -0.12569186 0.46267125 0.23797809 0.19271691 0.472102 0.21276563 -0.20461409 -0.0603543 -0.5648441 -0.36408702 0.35068882 -0.03760258 -0.50215393 0.327007 0.59399027 -0.0062827365 0.08256967 0.026264574 -0.34841615 -0.7252514 -0.012840958 0.35861272 0.38678458 -0.08874151 0.23767053 -0.22153808 0.27457133 -0.27777684 0.33369136 0.2937887 -0.62456375 0.334457 -0.68037325 -0.125129 -0.2607947 0.14308545 -0.13727883 -0.36939335 -0.12489082 0.29296765 -0.09623621 0.159575 -0.07146228 0.040741082 0.04345568 -0.16315216 0.22180629 0.103979036 -0.143744 0.11501257 0.3751035 0.38233578 -0.40427917 -0.2568491 0.010011719 -0.15797105 0.093878895 -0.21727808 0.8233596 0.2710265 0.28542995 -0.45586133 0.528198 -0.053948965 0.18441707 -0.047236312 -0.27938625 -0.013904085 -0.29819942 0.030914232 0.05119326 -0.12848571 -0.06713055 0.29620463 0.42176366 0.059755344 -0.29353186 -0.08435684 0.18807742 -0.21388792 0.4063026 -0.24964169 0.53860956 0.1914059 0.0020235716 -0.066205606 -0.19786324 -0.49901712 -0.3714206 -0.11475857 -0.3140583 -0.44925323 -0.009295111 -0.23963095 0.47400975 -0.2546728 0.5775517 -0.010524516 0.05512331 0.20762885 -0.09740096 0.02294097 -0.4462777 0.20969158 -0.30471462 -0.27325124 -0.12135758 0.12839131 -0.14548822 -0.28074652 -0.23272744 0.41427496 -0.09920811 -0.18416156 -0.51180303 0.21432537 -0.08584398 -0.028907392 0.20372456 0.10395624 -0.18134587 -0.056756582 0.076123334 0.4970482 0.040257514 -0.14686076 0.017934041 0.48823664 0.29464418 -0.37475297 -0.4413301 0.008941974 -0.23032992 -0.3367089 0.21921538 -0.05969355 0.7991923 0.2322379 -0.20788288 0.091251716 -0.24248874 -0.33421037 -0.4185256 0.0052861073 -0.05416557 -0.36860457 0.19544189 -0.42400944 -0.29533005 0.002334053 -0.082929365 0.3022729 -0.061602592 0.70910203 0.6439865 -0.20517443 -0.07496833 0.14398865 -0.19998646 0.39824775 0.19003326 0.0039909016 -0.13550532 0.122771576 -0.09119363 -0.11715772 -0.15831237 0.16619852 -0.1534398 -0.120603345 -0.03079679 -0.35850254 0.13304204 0.05135495 0.1233362 0.33066574 -0.34343594 0.5948443 -0.020693215 -0.0528724 0.3040373 -0.10439756 0.31344536 -0.021705985 0.77719545 0.08674938 0.40888602 -0.6093639 0.13556437 -0.2862712 0.045270734 0.4615365 -0.09990335
排 -0.21101609 0.1009268 -0.060666274 -0.20081064 -0.28353465 0.29564455 0.43836734 -0.20885816 0.19946319 -0.20079286 -0.4720155 0.12350052 0.22600281 -0.02883652 -0.27206337 -0.3105694 -0.18008265 -0.5013185 0.6145734 0.06768247 0.091412395 -0.023751142 -0.076216936 -0.11271821 0.07916448 -0.43622464 0.553125 -0.03405617 -0.1553937 0.31054485 -0.2227908 -0.012156581 0.062810205 0.2366945 0.53959256 0.09063505 0.3811171 0.22663468 0.11401892 -0.63307834 -0.15524864 0.110008605 0.19703503 -0.22225907 -0.16264422 0.00526096 -0.26574424 -0.1858644 -0.04724 -0.07635141 0.09316195 -0.019174594 0.20364194 -0.2515436 0.0070303143 -0.047571372 -0.056854844 0.5319631 -0.37272352 0.08913271 0.5472077 -0.35944748 0.40833002 0.20356394 -0.035464466 -0.42949852 0.06444957 0.004926253 0.22669095 0.3587343 0.008183811 -0.05214366 -0.04967055 0.0474844 0.08611062 0.0681845 0.03810656 -0.04650935 0.10291742 -0.14264514 -0.4043938 -0.1852562 -0.22468963 0.11942834 -0.07548541 -0.59557676 0.3665925 0.4111531 -0.07464953 -0.32949778 0.230447 0.1346847 -0.10633848 -0.36819747 -0.5302003 0.23403154 0.028620914 0.009380007 0.19066627 0.041291684 -0.5451355 -0.59146243 -0.13752013 -0.5275366 0.28356132 0.21900795 -0.120653614 -0.1741499 0.10548925 0.30958134 -0.21077994 0.048052207 -0.48288655 -0.048012476 -0.103594795 -0.122724615 -0.6395253 -0.010836193 0.074243695 -0.7741958 -0.3921573 -0.104943626 0.507943 -0.37707293 -0.20562182 0.39394188 -0.050886933 0.2092531 0.20217454 0.56665313 -0.16820614 -0.06582787 0.09442578 0.0077375434 0.006548269 0.29105654 -0.28711092 -0.36349425 -0.09872702 -0.21128221 -0.22214949 0.2903016 0.17582601 -0.46900403 -0.34267825 0.29029822 -0.15941752 -0.33940068 0.49714622 0.42584318 0.12879588 0.52855694 0.30045918 -0.90185285 0.028529096 -0.3665683 -0.28972158 -0.35798785 0.13307191 0.06845827 -0.034871705 0.565843 -0.016248664 0.039973833 0.20348908 0.31132326 0.83295083 0.15384668 -0.15514944 0.21624531 0.4998174 -0.22748382 -0.440773 0.08744991 0.22392082 -0.0634178 -0.16990095 0.18559049 0.3137424 0.14759018 0.055841032 0.17588755 0.27996445 0.21930024 0.41320723 0.33208683 -0.44165868 0.16838317 -0.033632267 0.24366276 -0.03188891 0.17075491 0.21393433 0.13813928 0.017423032 0.28274316 0.13780242 0.24583133 0.0058987187 -0.027017042 -0.29075885 -0.14500704 0.24767645 0.8470156 -0.03567968 -0.04919386 0.3866411 0.67876905 0.237998 -0.18766838 0.5267455 -0.41409832 0.24095213 0.026660278 -0.17662846 0.09163624 0.33293542 -0.23380761 -0.10419386 -0.25259048 0.35849622 -0.46003705 0.12875123 -0.17964655 -0.1577646 0.11931914 -0.030542187 -0.16185492 -0.29856122 -0.032694995 0.062130235 0.0706304 -0.5247567 -0.17168781 0.2026726 -0.29679823 0.46658838 -0.18795413 0.16354015 0.32407737 0.14638934 -0.42907685 0.120888725 0.029994512 0.080623075 -0.3385628 0.23709352 -0.31082803 0.11178907 -0.21513063 -0.03275324 -0.37490556 -0.093047805 -0.4328901 0.13861951 0.033095438 -0.2730417 -0.55344665 0.052655365 -0.07000292 0.6296701 0.0039811037 -0.37971857 0.20026454 0.08583887 0.3058285 0.06269553 0.007498045 0.39644098 -0.27950752 -0.042684365 -0.04802754 -0.013900355 -0.36008632 0.5160623 0.4321615 -0.031426914 0.03886812 0.08542117 -0.1686246 0.08850613 -0.07212202 0.07616816 -0.24643344 -0.0109757725 0.40186605 0.023451112 0.019613802 -0.027990332 -0.19464074 -0.12023621 0.21037103 0.29710978 0.2019026 -0.62053394 0.18230961 0.23981304 0.19337521 -0.45334566 -0.046661083
